785,15,10
-0.0010343566900753234,9.636916813519983E-4,-0.025671915554221637,-0.023307198612869156,-0.0247458754315973,-0.0047691716204429115,0.02549616638211881,-0.004624443305679193,-0.006850985222648955,-0.0038941324770731048,-0.003408770514790292,0.011063471254641077,-0.01571153123941736,-0.02023690663075052,-0.01584590677713486,0.03439441498883526,0.01419599013273811,0.026088171178827946,-0.018503885806343854,-0.020145620953271885,0.02311932108021114,-0.02239868358989016,-0.014392503774215776,0.02120997402912852,0.02797177833474239,0.00498058471895324,0.019548785241905814,-0.004744005153460358,-0.03286057786432726,0.018245568803728372,0.02144361189370894,-0.0010030341970972204,0.0028746674109891845,-0.03441555302956726,0.025288526994609775,0.032987087706930984,0.0014199755824437707,0.028654638705034458,-0.017457181061721398,-0.0015486635587677322,0.011776659215725772,-0.024113850516201196,0.01569178596234054,-0.005417130908815428,0.010565591969595854,-0.02581440515690225,0.0022801903535714443,-0.03259501855261655,-0.035564377099882166,-0.008513460142988215,0.01242516455551728,-0.026027275378681866,0.03241821127303392,-0.035352146910060875,-0.014621043548446871,0.00748262343616294,-0.014364262742230113,0.02796881306355535,-0.019090317443326302,-0.02535724283989438,0.015850249946832075,0.004526791058702427,0.029195998385217442,0.030252843245439448,-0.026248416531552993,-0.015732447572405096,0.022855012716863063,-0.016665397514079087,-0.003944580479294073,0.012257548795486864,0.035678368436064964,0.0332798254152062,0.03313168974049824,-0.03500840723283116,-0.013977682764677618,-0.03220047895146154,0.03401489622733121,-0.03393827020454424,-0.029069751144793696,0.0014532602279384438,-0.006226860240026815,-0.031226539418016265,0.028461024210369154,0.026420140415175257,-0.0015070807489025936,-0.01967758211993002,0.034300665646955886,0.027246898324063615,0.032906834354775816,-0.03094426927133227,-0.01960845228831166,0.007378139903556839,5.92241176929735E-4,-0.008447416163560009,0.016748024314244277,-0.023492992859428664,0.0052089756377986934,0.003909186179345929,0.004650608546822324,0.0030007520069153595,0.024487690346733856,-0.03563024559081797,0.0014057315270898166,-0.028439703055260744,0.03163133721077127,-0.019293495356738695,0.00626431256673405,0.0019100101170861708,0.02835818291435195,-0.024691791635881154,0.008603041500368738,-0.016811817553424414,-0.010742598409405314,-0.009933159439809564,-0.029158098585896144,-0.0024670057654963343,0.022806749527137953,-0.021555835909563906,-0.01125672897657309,-0.018285405526280968,-0.011812948543191724,0.013989850520307441,0.002941929075931958,0.013417527568077708,0.008819230291251617,0.002634894830138214,0.01385992027672276,-0.026191413297938705,0.013229856227373896,0.0010521677577957148,-0.004462640478653218,0.023324965369073088,0.0320733495597388,-0.022408784305133357,-0.03454745100399423,-0.016720707743074763,-0.00449559579400504,0.014490080344955206,0.02168084602603889,-0.023933377671591705,-0.014191894172996797,-0.025724179759913004,0.03277569878735799,-0.019396479656040282,0.02645957798504863,0.034071733536625196,-0.012473015815997537,0.01013011130712739,0.025821206447904053,0.021155355247569035,-0.0014039098279800405,-0.002078785353531544,0.01638102123162548,0.00987085508739867,0.030419619421029262,0.03300775327396312,-0.01939908706488807,0.03195804097874355,0.018561060788593632,-0.02975083567225462,-0.026748558173250066,-0.0013139342338661444,0.022743370254229824,-5.231269062348776E-4,0.012129724514723099,-0.02986398412125338,-0.021094786819542268,0.00363809614155583,0.025570361283035192,0.017546431440518317,-0.01352878206286811,0.0280526259518111,0.01807799596946423,-0.035221001024192594,0.03156365929119144,0.0042675064821926165,-0.026967740423538597,-0.019579723889466966,0.02894803040753005,0.012361247206828442,-0.00476661678584157,-0.032194457141408304,-0.001825168744039006,-0.024040617816205742,0.022767383721138325,0.030706993594944873,-0.0012770045401515814,-0.027545345797121687,0.032704731774837376,-0.012234945771426576,-0.007799450424329363,0.02717977160634215,0.03232858035348252,0.029510020678315832,0.006069518182441579,-0.01809091267547407,-0.02243706974605086,0.026086963035291087,-0.013662164521885872,0.0030396504741153074,0.023565848988564342,-0.024376565628847865,-0.027411701304190256,0.02344046824757723,-0.024443984879059986,0.0015881078097688198,-0.0036889217147544895,0.03193047639106568,-0.03328892968928659,0.010155757849575286,0.032671216990311766,8.4885212204764E-4,-0.0334731361860148,-0.033104820093275075,1.8875106209497589E-4,0.010654758809185774,-0.007304272747721573,0.03283845485136706,-0.013086694018294306,0.010183939648291528,0.01530985446042464,0.010305074540000764,0.015109699881118627,-0.004173896249652753,-0.0033046151746736474,-0.025724794207224407,0.02285724277707768,-0.008493449353318052,0.021724718949052667,-0.03171769261909957,-0.014063839677078898,-0.010611019347919727,-0.030618577044724527,0.0016573455743562615,0.01086938443685536,-0.029424475317073102,0.01230487462984952,0.019618289856011432,0.014793127125746826,-0.020404789606836036,-0.01681774808146279,0.02469959938750208,-0.016861374969245654,-0.023856624306156662,0.021368393669297416,-0.03349785235124566,-0.02074479182925018,-0.025509011791601092,-0.007786025145796786,0.027887919303769312,-0.004114644894012781,0.021284968113104694,0.014546715751503687,0.022412855225931116,0.03181190350920553,-0.0030368281121781263,-0.02069838031131107,-0.01096245596575222,0.019737611014146575,-0.016035282163922922,-0.03118327766580791,0.019794113933505914,-0.0066819330725370295,0.02823939180811022,0.001994895273727086,0.017964824489995708,0.021395896267124223,0.025107253903301215,0.0267783422692527,-0.03550365719326749,0.02534874984319603,-0.0240347181406724,-0.007139505337489239,0.010643889366678295,-0.010744505228441444,-0.012592615427172504,0.018318069577792535,0.027767717080319693,-0.012590831023033988,-0.025022860442874818,-0.0276076447494641,-0.011975349461228284,0.030416194093508944,0.019263159168629765,0.016285583294315974,0.011764632360062956,-0.029006417784096353,-0.00954407457379534,-0.005551072276375694,0.022276396954994192,-0.029475488674635862,-0.02522038120256609,-0.029879734251662633,-0.015791861680597343,0.02319983229268971,-0.004747809299170888,0.01856900038456538,0.027345200713882495,-0.024151986796432455,0.01268468466985647,-0.02301975840614649,0.012356414863393304,0.017157550341179648,0.012291622826507642,-0.0072535756791843285,-0.005908678182520957,0.022907932439711544,-0.019203729066720243,-0.016167153472157483,0.013780728827289396,0.0019262308797933225,-0.02673580615389541,0.019791508713755727,-0.016776478448029365,-0.015089600139707362,-0.02680940497999336,0.016069261451914223,-0.025935541162086163,0.026087014970674283,0.005093193416439046,-0.0014288049979515674,-0.007693434709487641,-0.019429442635295436,-0.03206548647641658,-0.02405704465286937,0.014176801075146447,0.017525106160781734,-0.011050291476815903,0.005225447378030164,-0.02626986053915443,0.006322010672249807,-0.031139479460744003,-6.79963064271559E-4,0.02226778321628472,0.034213268424978974,-0.033019833355981174,-0.015253221223367718,0.012840896932432955,0.03224169836963803,0.022600027378753204,0.02143437541590454,0.010138145616442072,0.005140597259262712,-0.008328235219461962,-0.017671191845398258,-0.02054549645721601,-0.02471051590127005,-3.822817535532458E-4,0.00412544179791266,0.016842424945935047,0.025719146990870974,0.029352074614509213,0.020243734947074904,-0.017463947090007967,-0.019329612042941105,-0.026184639162637448,0.010624709555783929,-0.029843293024920083,0.005588815418189522,-0.023899566084784205,0.028749423118250156,-0.022405614880111745,0.032311947992625364,-0.01698958422730147,-0.025750297894272918,0.005871277922343404,-0.017006173422762554,0.004960551692831432,-0.028159640297121872,0.035036326337669524,0.0014036985599647778,-0.030833698701409763,0.02457343810325259,-0.02186230100479758,0.01072575801435268,-0.017854706094519713,-0.030412827286947237,0.011633229610312185,-0.025103546582136232,0.0012662909096483183,-0.0317751925682294,-0.01858278165732933,0.03551819108339126,-0.008608828891022192,0.022506001261013153,0.02627124077685561,0.009874218640241114,-0.02641099773227943,-0.034291867938597516,0.010503973685155113,-0.0035253834862353367,0.02601439331541438,0.0319906841973354,0.018147776814421944,-0.02339840318174234,-0.01128506978632135,-0.03365693116783722,-0.02758611195642402,0.029041643218642554,-0.004462260529486048,-0.02791025342199622,-0.03295673083391789,0.028129225797056526,0.011265941726014472,-0.02159538401668176,-0.003119207036822967,-0.03494520025454195,-0.0019087467747193054,0.014372918828298338,0.017502014592441176,-0.03207243356566484,-0.03398433159223484,-0.01423202871313654,0.010684236502627266,-0.021596843883734868,-0.028961245410229965,-0.002820754804791527,-0.019249122116962,0.01646573155534839,-0.027189831781982563,-0.01798086572872537,-0.01409672424742554,0.03210420992009777,-0.008380204128681394,0.004025718472032737,-0.009711666454936676,-9.978595818800895E-4,2.856381743262734E-4,-0.03160964825280765,0.005778353611254561,0.012026845442591638,0.018835314634369743,-0.020884280546145426,-0.0352954286302232,-0.009123376447078071,0.02279227855108895,-0.006125504072782097,0.02353974488835392,0.023321813175374927,0.02714280502995639,-0.03373143903099585,-0.025111112282554308,-0.022056272046333786,-0.0017973914198189667,-0.023197121972370865,-0.007379498950641248,-0.01345027107687842,0.0013283362448987118,0.005646877317185883,-0.009909680478147932,0.03370104236551791,0.0014911854405544114,-0.007003416450442546,-0.006228353529882394,-0.02739980164481414,-0.006400860389799968,0.025399544754407845,-0.006449708879893316,0.034105032486536804,0.010221687082845238,0.02025372806409214,0.0024431839500202238,0.020785231115019495,0.03348782039618381,0.011800493378819187,-0.022772401782115044,0.019021369659275,-0.0019479120533696312,0.0027403334362125845,0.028386090687412713,-0.013087693861438099,-0.015462656025108108,-0.02590413391569397,-0.014570676629246646,-0.028538462739073064,0.010851522063858934,-0.025430613057977336,0.020998173875491417,-0.014011730396861682,0.03064613273849215,0.02333140959806694,-0.03329130305444711,0.016478117999473407,-0.010748673080106807,-3.0165575661100785E-4,0.022528238111896005,0.013325295245906268,-0.005608733592039644,-0.025702020717325785,-0.00354964993375205,-0.010671841001915577,-0.024104823704237305,-0.01134661809270002,-0.0016470521945462363,-0.013160859978575686,-0.009522783985166153,-0.032312443457557856,0.022747951074278273,-0.018466926716443073,0.007220874868667321,-0.029884105337905167,0.004898540924347265,-0.027868569848540335,0.00987206792839631,-0.01313819034383134,0.019218439705546396,-0.006460723501518259,0.006814989134705102,-0.014408731964873609,0.01734712563340697,0.012878170890774629,-0.025892654028510105,0.016166349287661932,0.018581625657635957,-0.018615791728737716,0.01522724835778621,0.00673776208795647,-0.029374843993567254,0.006255285756476513,0.03248674659524943,-0.03560372522867082,0.018361125808426845,0.032190832991586954,-0.033151559498994704,0.0072468697701538465,0.013551402947329193,0.009620752959518551,-0.035195871785614063,-0.006085908070231884,-0.017987829487631068,-0.007181119255103352,0.026874493301409397,-0.01668267207880286,-0.0022934416106696405,0.026020510427397645,-0.003226629443377339,-0.017772285309376454,0.03421940749980351,0.03626340130408828,0.021172807697960653,0.0013286436805330544,0.013319843464160723,-0.023474213539791147,-0.0030576828007443345,0.03460571759678333,-0.03382273307812851,0.021816918157758436,0.015015525511681964,-0.023957306926099518,-0.03108307324688789,0.013533047557980354,-0.059371645351122306,0.015323252584768316,-0.022867866837961923,-0.030448997777637016,-0.046762427951658775,0.0067315723512257715,-0.011604027858887115,-0.014016260760327904,0.01901810746113445,0.019412764926074185,-0.01951454447189896,0.028147665224396882,0.0024020176439708157,-0.0057438324706358575,0.006633720550640268,-0.09187971761849437,-0.004705832050152041,0.03290187516675914,-0.025380611902268098,-0.034253009348296365,0.008328457724698812,0.010556367724507987,0.02273575623429023,0.01145720755147211,0.030856451375402928,-0.031021680327384223,0.03232322973041033,-0.0161024907812972,0.014960167957051976,0.013209274085904039,-0.03435571292518074,0.01732502551561997,0.01104223303077514,0.03150354420137543,-0.05407267550519611,-0.010902649260109318,0.016298443263288227,-0.023190784740286883,0.017388432794266957,-0.03017473005261804,0.01399826592369729,0.017914742062904603,0.006785776835561902,0.010467187240744379,1.8594525606351156E-4,0.020791111350612675,-0.025895940883411208,0.020196787359933445,0.009166356569644773,-0.054709788842385546,-0.02165852106299386,-0.004232381586724264,-0.034024792509711695,-0.03673394389653135,3.6531751636998354E-4,-0.011541629242498339,0.019666226114014224,-0.031267380084637135,-0.023140932734618987,0.01866400208694927,-0.035262733966443624,-0.0025001905392071223,0.02443970628114812,0.02243003933922884,-0.038414479436618944,-0.01643095499381567,-0.022875938333214916,0.018908119365852145,-0.002976666965473587,0.027248842316682575,-0.03512781909053471,-0.0034287568108957406,0.013789155030112172,0.007651129997848964,-0.024955748698999577,-0.009123939164824237,0.020002650026144764,0.028187339120441426,0.03681700706321981,-0.03146824096282069,2.63740390812179E-4,0.0324598337117721,0.01639057622529309,-0.02840008091880576,-0.005981612798149411,0.017068615441462986,0.006399809084314501,-0.0159881709390066,-0.025098206326413783,0.009166104455924225,-0.004659860377745358,0.002141072779974124,-0.018492410186247088,0.03611252671599755,-0.12449238525951307,-0.016088771048364675,-0.022052301543946693,-0.03066194908348561,-0.0015941890908574353,-0.001337165556995611,-0.026061220415002452,-0.019752182561439013,0.03942023336642167,-0.026066337326853487,-0.048079407546572465,-0.0069341136953665,-0.012232088757719282,0.048728826182421595,-0.018076813511511507,-0.09228765273566887,0.025120696029439622,-0.010788364815334512,0.020436266400208375,0.01927820091448688,-0.013953674574388647,0.025612045320670004,-0.13519595178273108,0.02395251568317003,0.006512275490988206,0.021707092018991677,0.08960336205467413,-0.0019359727658743188,0.1544602069767601,-0.026550354490555993,-0.05901447957927475,-0.01249289376896141,0.005679539349413744,-0.005033598989592464,0.03142865381994909,0.0370484968790225,-0.021659861662911933,-0.03667093926980694,0.0014853318698851152,-0.03256192990430068,0.019382681108747222,-0.012008893511232587,-0.02177717005719763,0.04823039409603228,0.006030724946165068,-0.007289156324296654,0.004654164948511956,-0.0012969326235558155,-0.015211233080725077,0.00863625593067788,-0.007572742795021732,0.025157944990580994,0.03537638425410063,0.021594758701795915,-0.025846154512336537,0.014609873489180279,-0.013131259327419197,0.021529243227969546,0.017854205219128304,0.02433909862922261,0.014762320469371948,0.024092297791547916,0.02738313138328679,0.006186539968986225,-0.02071117348249708,-0.010192513570817203,-0.022638012000538235,0.019203517433642014,0.014993192744198976,0.0012524011139806663,0.016501987425096273,-0.03728167687327191,0.029508271784587484,-0.027728597817892872,-0.01958000043729428,-0.044406996451706184,0.023444555592065867,-0.02125204552609784,-0.009158051617772871,-0.013927742293060702,-0.03790674342089245,0.0033239115468770056,0.060385517388571036,0.015992031003025126,-0.0076823956445969096,-0.012618696036849564,0.0197757526655514,-0.024462736460696344,-0.028191352591331608,0.020217998190729558,4.146427353439689E-4,-0.020732874232009993,0.03286696200001812,-0.021814391417193366,0.013253972399836665,0.006904931680013037,-0.010072386499817603,0.02567514426524078,0.016945994077955766,0.0034633537629095252,0.02528785522921316,-0.029040953131183548,-0.020345175291342638,0.0327448216024512,0.002219883197954834,-0.015311902409691647,0.014985860138944594,0.01101677078073303,-0.0285017688259264,0.010665654405233,-0.02084237403174057,-0.016496892590180702,-0.027148439518799014,-0.01225615071838589,-0.02568449736272489,0.016467465064734295,0.01858795187524211,-0.0026346214422195047,-0.018299609476986698,-0.003099483441749003,-0.029899731566494038,0.0023264372919018996,-0.03445554147338716,0.015541378558201572,-0.0022148391968116942,-0.021473180948818005,0.029647152707524733,0.032504118726276225,-0.026267379157719057,0.034159391396746966,0.023486556001311793,-0.011296975989845344,-0.009308994162279545,0.005285416967894397,0.006886517525166282,-0.0046520239546294605,0.01712011071009087,-0.029067254730744937,-0.008144001743381837,-0.0030534540207953,-0.015770524723340312,-0.0098780457178432,-0.0300088926135518,-0.012509136382962183,0.006513517524539138,-0.030079155683197294,-0.018384112184185043,0.009425352137296804,-0.009625247182793551,-0.015344839114829468,0.00978680836559289,-0.025467887845997163,-0.018648861083701194,0.010919083446605415,0.03560416209116188,-0.02766733050014266,-0.01487112628474115,-0.0069719513047307655,-0.012512492269680688,0.016517013350790574,0.03343945495801215,0.012544357007510214,0.006728271278115615,-0.007046617032854155,0.01959516631099397,0.010175181761604438,0.02542766489480241,0.017452538863558062,0.011326418926541966,-0.02935023487000088,-0.02984109113638643,-0.01613127794881208,0.007018933807650084,-0.03452245305129185,-0.023137902351891115,-0.005720292715483882,0.002650222779141162,0.0229692862089972,-0.031468753725631696,-0.023175944370442708,-6.978773121810514E-4,0.03254469723342236,0.021335388361859053,0.03361912638254082,-0.012255180464039256,0.005301916702435981,-0.011377367524074554,7.042931639037603E-4,-0.0014783441584057602,0.0057234911558847815,0.0015457729329890896,-0.021047749224837185,0.003213468964184403,0.009712006811365158,0.013635189829510695,0.0035006692259884967,0.008638000024324965,-0.023436340958952938,-0.004071940548498625,-0.020507450500636418,0.030535456679313858,-0.024701713660103937,0.013057420067962032,0.030466195768840867,-0.020319622161737667,-0.0071997421791111064,-8.730636804274994E-4,-0.019625041240189028,-0.01525408832713733,4.6596558574896196E-4,0.03545703215978302,0.0319061561804764,0.028371425094434147,-0.03058806865627317,0.026764658313305642,0.03493995561447083,-0.018074797932582373,0.014010413101949788,0.016338401377095094,-0.023209208096026786,-0.01927830272953618,-0.0029693752573409574,-0.019972774954674644,-0.017269481312708418,0.01133426457835264,0.029956906496764746,0.00178981679027123,-0.033139672386167406,0.012526489844337726,-0.0026878002611354715,-0.020282954458474466,-0.018628520245722178,0.01183754235465314,0.0160718166183014,0.007447107355694364,-0.007644858175456761,-0.03005736042925221,-0.023018945622045726,-0.030076783547507365,-0.028040364900557595,0.013822859787835547,-0.005766340499612679,0.035041119878490776,-0.012287495641505792,-0.033017018756821004,0.008615829086262058,-0.02090348552714029,0.03012401980754152,0.025673272024478923,0.009335424378655859,0.0014286355275721571,0.0068203555347306835,0.020563765210609354,0.012068792976434109,0.017137863372901727,0.0036008177307961095,0.004140128441460673,-0.021855663650714206,-0.004693814853138099,-0.0016530212490950744,-6.771955519219265E-4,-6.844621792576401E-4,0.0327211100064886,-0.004071152932780818,-0.019733191039819197,0.018436154939482603,0.009667303906328025,-0.03558034109495571,-0.032913875603970105,-0.03555945489031846,0.014764991177899565,-0.010113813928949078,0.002134047043285573,0.020987505747379846,0.02957739269592018,0.018834651142757786,0.018928751467223857,-0.02602409592751482,-0.010992606629386606,-0.007990671932208208,0.0016294685826278347,0.026351267439502862,0.015046143865104038,0.02174080483378526,0.014185604674682939,0.03124259251076541,0.018446524582432806,0.026818075420591773,-0.0038309089686876787,-0.0016777713589879897,-0.018564043338024423,-0.015994613877135407,-0.021003850190310126,0.03163212882825033,0.006754864331503415,-0.030001139951059626,-0.020821238131862357,0.00275044256476781,-0.03288781961713375,0.02759429585181868,-0.02749621086853659,0.02421590543552409,0.01634771381249699,0.012466791887964058,-0.02699639629120449,0.01370434146075049,-0.01892796274254176,-0.011448585385669943,-0.016952609942893552,-0.02940507156453757,-3.3723920103468697E-4,-0.014267509960822706,-0.015246235030415365,0.02247515678633547,-0.02389983787607905,-0.02556558605033167,-0.01253836694388405,0.012287386449596953,-0.01262001147020326,0.017612619621244743,-0.07845113137801359,-0.01850472807828421,0.05444075528537738,-0.013885742391466822,0.006067806888012238,0.03239999671516321,-0.06294339498339924,0.01457800298611217,0.005540497257155614,0.016251780286537006,-0.04691361245639198,0.020875930004374106,0.0034283836830892134,0.009719458111526254,-0.027489238467910907,-0.21527514508038648,-0.006140239156735045,0.2031851231493915,0.04522218074813661,-0.020813384722756186,0.019702967578919907,-0.18636398244304578,-0.023211251735203896,0.14373159891941864,-0.04166619270034376,-0.1361577191051552,-0.024285595967711515,-0.028420918224261023,0.006960262160160872,-0.02038966850479025,-0.107575903968467,-0.013334780823876898,0.20464331334124822,-0.025563211596485995,-0.022228908698160424,-0.014805423182249164,-0.3032929260284974,0.023188245280610965,0.2301563943903178,-0.02640589354268315,-0.21497958776311468,0.014263170300017261,0.009201971991030435,0.03693546715043278,0.012925042765440826,0.0077253517563903055,-0.030479073555683907,0.10195284447895683,-0.021642268464405236,-0.020248161567415546,-0.03545548861849412,-0.16755145938159974,-0.020485195059501936,0.0727835696780607,-0.0192416561177069,-0.19088512022448173,0.019539270107285484,-0.0213480995878513,0.19533303546274947,-0.027531036824408973,-0.03820143696648401,-0.07016430381102813,-0.09184231247982119,-0.040483323392087635,-0.01852696464780986,-0.14693637395088047,-0.03475317818674269,0.01627403224095179,0.18098985443387403,-0.11403684183847097,-0.16358012399208816,-0.009705283988021103,-0.022051368025019318,0.2479540600982891,-0.04330111513186715,-0.022614785755079147,-0.0914038223264761,-0.0835807824063757,-0.0457184848510981,-0.03638733621229146,-0.14419739963587383,-0.1492485360162278,0.03119591765841582,0.2318188764904699,-0.031072835356664618,-0.2727651776074791,0.025548383541180116,0.00364498522224681,0.21181860084735565,-0.03208483112010037,0.021458441323821128,-0.1908890129209592,-0.1030513827147706,-0.07023806593126435,0.02662749786781685,-0.036470743601208055,-0.1392469758941886,0.03017390761610553,0.2143471141922999,0.031753777227890974,-0.20409199441438589,0.03940945500805885,-0.012907839661436729,0.19297174811162676,-0.010684850054447045,0.04807796536637067,-0.17544487340954223,-0.0122063404168565,-0.034921470149815476,0.011231906239362828,0.04179779003116692,0.09581488289474265,-0.03189730413962289,0.20874001672844675,0.07044738865338081,-0.1655292018661213,0.019869617440845828,-0.03298539614002421,0.13252932844431597,-0.033588059070730286,-0.03037491220058642,-0.1230079190206972,0.05713275110321145,0.01086108285714989,0.004169348707142661,0.10760454145985832,0.07385876480095728,0.03118528653867576,0.1958705515242375,0.11151167978984686,-0.18194751534633863,0.026464962907757527,-0.03937780737336944,0.1539124981011763,0.004751022278142462,-0.028317437917972973,-0.16407666345481742,0.27297017808792046,-0.0031523384875374624,-0.012191859647872502,0.03447123898026295,-0.11549842306440963,0.012224901818566874,0.12599347185539075,0.16833684775184055,-0.15170882425333768,-0.030342931587673438,-0.008682799491462124,0.05760545074673997,-0.016500606762870195,-0.08090687129943623,-0.038914275370440614,0.24992199658266778,-3.3838929013982767E-4,0.0051530729823150235,0.0034417650419759755,0.027247010077479126,-0.00481158667650258,-0.020440424519995313,0.08925835635600425,-0.12991002749317357,-0.010488563674347048,0.004803128264226396,0.08049095712441966,-0.030913653507428702,-0.05362946385030143,-0.05751456308376173,0.17549656936820648,-0.020367211596432597,-0.022743865009766242,-0.006369667175742862,-0.20132338805059355,0.017640716415423665,0.11960058335170888,0.12745580581013052,-0.07339177316698044,-0.005846251410347033,0.0100849904665991,0.03522387613559412,-0.03620590599508879,-0.09379575558986623,-0.025586352424658412,0.1942077530297806,0.019128809150990227,-0.019650002748716897,-0.020172978931858754,-0.08185027819656211,0.009466631118555719,0.021915262252822913,0.08784301712929576,-0.0417103232584905,-0.002315309767981809,0.020420848115555397,-0.002532253724861329,0.009907635607358939,-0.10700694779299168,-0.029825890338780896,0.1906044065675677,0.01667867472842662,-0.028247449812950395,-0.021451858412543694,-0.07015319524880512,-0.025163572011864057,0.010833767139784943,0.08773931666488063,-0.08990884585747358,0.03156022020865062,-0.017326256991744317,0.013792297759683235,0.026597518394185272,-0.06371415569287367,-0.026312127934907614,0.06536004293686579,-0.021998298143253363,0.01130973071653938,-0.03991590862799223,0.006299175194244556,0.028109702033932666,0.03567157351173743,0.050989568439841204,0.0023694600647046126,0.007193015306447905,0.01829081216390007,0.027198229773910298,-0.03193481130315985,0.0027781252245260533,0.03546515502943505,-0.042593966988852754,0.004735004316456689,-0.013850783883164805,-0.031850734133184504,-7.698797297556317E-4,0.01441108361865436,0.049055008484689286,-0.0034428371296264465,0.022848556911964128,-0.006028087964064098,-0.017972332263338435,0.002015650512263611,-0.0333352847080186,0.012678394976855816,-0.028651464363334937,0.009138540256264338,0.019904866263428446,0.013070551535309118,0.006059104561675924,-0.014444051290166467,-0.0011623373953202508,0.02848951576634991,-0.007123259465654865,0.01037436506328078,0.0243991744391768,-0.030238842470723445,0.017454167805107605,-0.024362867386204787,-0.009647355459897082,-0.025212692905942906,-0.024515132594500243,0.034540398259308755,-0.03277821955509513,0.012920788889605003,-0.005687758746204547,0.01103958229168437,-0.0011113029095796145,-0.027225081582161192,-0.00449478792147345,0.016983250890189552,-0.019756581430735054,-0.002437068255344059,0.028704193702540876,0.020973075605354587,0.021041909019786427,-0.022713250788071102,0.034025730999432804,0.016340649601316634,-0.025356414360714168,0.025148001616321164,0.01443838431989914,0.03056512310895,-0.00639744633789158,-0.021260666918874155,0.019355231951157528,-0.007972303181474391,0.0034737494894135842,0.03380523219517251,-0.006756129441697043,-0.004038816526186664,-0.005130063876135762,-0.020909997833929213,0.0015376173069962251,0.0052283540232166345,0.03132516859641474,1.4434246484362756E-4,-0.031268688700108134,-0.020352391745405887,-0.0073574365207434884,0.028873668019447435,-0.010157908864068636,-0.002795421296108734,-0.03423781303111649,-0.023339521872127816,0.011188444973165387,-0.03430816592356149,0.002456150683521688,-0.013794451903233387,-1.9393533833057808E-4,0.024105880625792997,-0.03358509904004526,-0.008220089699074118,-0.004573642391631182,-0.0111436970049483,-0.032944402120439774,0.03308304996059375,0.017885151759732612,-0.010651734661788547,-0.005275076452231006,2.0587797447185058E-4,-0.026451009158564846,-0.015506746461749106,-0.029172002754990482,0.004077260750963568,-0.033474192763100395,0.002586051062015232,0.012207834331914608,0.0176866386369903,-0.010510848065187928,-0.0025146816914341993,-0.00689181147903865,0.026099986415168745,-0.015528991816703804,0.013738686453828614,-0.03131630717939001,0.02110909644331547,0.015959681535010935,-0.02131855265506926,-0.0074584340461704215,-0.011036152949318239,-0.00132291208413092,0.02955371273808685,0.024667859743439678,-0.002119199726085888,-0.0015164311132166083,-0.014449268674733916,-0.009594401276531363,0.024197595583458485,0.00908957666600968,0.02515788425968804,-0.02908412040985661,-0.024655635663607473,0.009012578255484606,-0.020187897873169557,-0.018596603580315785,-0.024175944117243303,0.026964610466755495,-0.03421066282046701,-0.033166740052278425,0.021581117778457323,0.0297984031545062,0.0030850349237395306,0.017922322402904266,0.004899749271725888,-0.018465989577935993,0.014680983972287625,0.025859279891741083,0.012636061187002034,-0.023199941446905868,0.03020833318519109,-0.024629041384842294,-0.009898604586144832,-4.4706280826318964E-4,0.016137616142059868,-0.022585939252330024,-0.02155456629059192,0.026652433175508868,0.031527228403227046,0.02192142376765057,-0.02639593798958085,-0.02557571834916143,-0.023834965277851172,0.009663081888046774,-0.008812106802823284,-0.028864472594253975,0.011139395978044446,-0.01869630492621773,-0.0077886136831290765,-0.04474422103347916,-0.012502532613182238,-0.010447805319920213,0.026361210224125065,-0.007356582585740988,0.015347440882568297,-0.0028341055310294253,-0.004419848438849359,0.017490099069897583,-0.019349997267378124,-0.030089949550369373,0.020416375841432244,0.002340812701095661,0.013449328330193008,0.04075125329213978,-0.0805988567039861,0.03177379233024219,-0.014720444998287873,0.036321652669137124,0.018124006923752267,-0.03019397372299989,0.0035489130342018053,-0.044902994035207255,-0.022761726923951956,0.026182878969722864,-0.037713453228306645,0.051076525519454824,-0.03115702141056353,0.06500069981746782,0.004566879129110195,-0.09286820625618808,-0.01715241952427045,-0.007299157310435604,0.13307805492287772,-0.012420079466099392,-0.053204653666741264,-0.038913284941894485,0.08070668253978962,-0.013687207004532218,-0.0016381785394150154,0.03657876610615675,-0.004680270227762514,9.464948007650382E-4,0.1882563937068514,0.023419276421931694,-0.10996788259895346,-0.0073822231281766995,0.03153435617648494,0.251173161369511,-0.05231572607923018,-0.1396411811206063,-0.10025652655027863,-0.08462264892879888,-0.05034886491443046,0.016752830179171185,-0.018916666759362395,0.0425239795076676,0.02150291064247479,0.2565095935195982,-0.11924466007070111,-0.1551209322680001,0.0249537526335154,0.01806457810983671,0.2832088208999781,-0.044470714133021894,-0.03247757674353977,-0.0917721766686461,-0.31395850858458474,-0.030982273139728973,0.02128991207949983,-0.13438494014178742,0.17625884042278345,0.029734447456303905,0.5468883367304735,-0.10001277560457822,-0.2817044786084738,0.0018956854288755566,-0.011570885570450565,0.2429785858440324,-0.014702606073132235,-0.14794249425896938,-0.014644027488451674,-0.31098949544167354,-0.09030266536841547,-0.018296911439244622,-0.2360871447763917,0.24496645954071797,-0.003146052877486428,0.4794264399527851,-0.14944738992950232,-0.2592567201039278,0.01574110823836399,-0.03750865431368052,-0.03333149027217237,-0.06476537284912895,-0.092282229833023,-0.12181048020551297,-0.14485654987223975,-0.08417979695181241,-0.005470981298307305,-0.1048791934597347,0.004659803767167242,0.016172165874657793,0.518515687174685,-0.07337723896224795,-0.5450342514007113,0.018458051042848877,0.012928122134702654,0.028660860910430238,-0.11095106569212522,0.06359111874830901,-0.29440268334694975,-0.2124901317057874,-0.18073247136211143,-0.01895505598816886,-0.14147468044690378,-0.04700654055476305,0.00860377935618232,0.5469261033360322,0.06901722248153427,-0.5351657406650263,0.004987052090198783,0.012646178426308967,0.1184971900943886,-0.16270441628517476,0.32030118382854783,-0.4055769661735487,-0.21182147656226105,-0.08787814465950229,0.0215381944204965,-0.012332797148471405,0.15389664370249348,-0.03884068957877953,0.44023434916098886,0.14221687507118017,-0.4799288117524592,-0.032910783256593544,0.021988300927908388,0.3195631150342237,-0.15791758052359367,0.10597003688152683,-0.22003959854181762,-0.17074811903379272,-0.06274194036340565,-0.002695152045417537,-0.051803080415264,0.10799582484534617,-0.00612064202503521,0.5707161430109442,0.1288319906529319,-0.28236168727904387,0.01360470650235373,-0.00794474913905219,0.2921363948751693,-0.15502531114701146,-0.07757637934086394,-0.2128002126091898,-0.3453820220622037,-0.05973637033747455,-0.03004884519785658,0.03954316699160693,0.10846881344143827,0.023651125044698313,0.5879782853065393,0.10706145253635285,-0.2260022589270674,0.002344147312639263,-0.028291915421882908,0.029326040667153084,-0.0849292241573646,-0.188866772646324,-0.2457074447374386,-0.11964807945651047,-0.06776409668480575,0.0015495483930806984,0.08990980205988845,-0.3378870067730933,-0.0022536801069352377,0.2520873338900832,0.49364885586738483,-0.37545840372566874,-0.015981813292289627,-0.03834957528997248,-0.1581909347278181,-0.11969673739464734,-0.5847963417577863,-0.0766684697943043,0.582050930954727,0.01581863755338434,-0.028876793422591637,-0.08523350579499028,0.05130704338250448,-0.03035806056449284,0.40470303666837215,0.3623760387494311,-0.4195595529107354,0.010975753468446215,-0.007656323320783465,0.22870365269144477,-0.1531482932964923,-0.18258046142611029,-0.07106679246993947,0.3473355428881658,-0.03568226191641417,0.01994203953516526,-0.07991495764162433,-0.1599239487076274,-0.004146813002185687,0.6074554008891517,0.012124965724679988,-0.2368439851393484,0.006837292794960813,0.01686185314706958,0.16585297920015998,0.014823720495295725,0.14582099213621952,0.06724168957982442,0.22301272436082367,0.04063816976481316,0.010307083186423576,0.11745052383785048,-0.21797852693474068,-0.025249359470668403,0.228247572788335,-0.042232150271131474,-0.08419745986571742,-0.01427845723719838,0.013665314374417082,0.07592090162313614,0.017587385135878545,0.08835690364928842,-0.016876598613500604,0.4170435602038291,0.05716406010143946,0.021549938135114927,0.10933843348639334,-0.14350951029808112,-0.019791233120162347,0.1663425743347296,-0.030466795561397576,-0.2589757772145994,-0.0028933752194179787,0.02481373773236349,-0.040826140964531965,0.010369886260218623,0.1650776096941968,-0.024929814837039606,0.2369985917860739,0.03791346436958578,0.021877751437810802,0.037187757570036645,0.06436316969032305,0.008579044183024161,0.1618087654353598,-0.04042205647715357,-0.10308889061946803,-0.027591742356421735,0.011265021130293235,-0.050920540773472994,0.01328888741943129,0.22068189331805085,0.014669394249605158,0.042658048343114256,0.010809732125016175,-0.014349418508069974,0.0531456857239241,0.019041308675378486,-0.008610115334440002,0.03134059873194653,-0.023488773538933642,-0.0048992062391917226,-0.03176744613165753,-0.02696537774529018,-0.023409478549326453,0.015225309927354798,0.1331606028490055,-0.029623465841643035,0.025120293100596422,-0.017062238684513266,0.026019558305124573,0.0791775200056809,-0.031002598638143995,0.012630463110821043,0.010313417690960953,-0.01506919621320071,0.015929635656217786,-0.008334228105972872,0.03160838757280279,0.027832473559252946,-0.023346301703320943,0.00127310288864399,0.025946349016100913,-0.02398667825829261,-0.023952944537737386,-0.016986852712047026,-0.01822090753247775,-0.00862804631180384,0.03055833078044641,-9.471901345757608E-4,0.002273255249185098,0.026691517508517115,-0.029637939604382765,-0.021090045743990544,-0.03053131297246966,0.020672559904337993,-0.015269154569691048,0.004673704387603679,-0.024453751011661716,-0.027321595475674886,-0.005066484015874308,0.03266178370001767,-0.026824850711834602,-0.03374757605728306,-0.011933084339967395,-0.007171107390242799,-0.011850467018827998,0.00615454709716369,-0.008414560472440009,0.022797186973101506,-0.028260730706181302,0.009992876918705415,0.020768445987593954,-0.03561360023247384,0.03269408551579461,0.006717688988087736,0.023038250372459552,0.03229950499185641,0.0271983376035045,-0.03140237652438027,9.346307854399272E-4,-0.021672127022883594,0.008646124630003374,0.02506962746621797,-0.022463416199815428,-0.03415716261053996,-0.0029691239830571745,0.007847667103152003,-0.012607973023582582,-0.03275799242593382,-0.015605628350464931,-0.005121930706488736,-0.02338840546351214,2.762263513137325E-4,-0.017491319546232766,-0.022700700118614636,0.019514075125256283,0.012559934997702075,0.024435708291400897,0.031601232282730346,-0.03509492220531163,-0.016324023652228174,-0.0034550156309011357,0.018030821193145648,0.009222912909205752,-0.011011016883295744,0.0013335549781351222,-0.017647657979493594,-0.023082880358786514,-0.015033796351594929,-0.006553455253953008,-0.02569089322258604,-0.02455396775466641,0.003854154256610426,-0.02728482399264815,-0.021801430680865957,0.02359448902451497,0.002352930935296295,-0.006837986313316665,0.011940966847225412,0.00116625143056686,0.005430812963195905,0.00822642346578615,-0.025167478667379888,-0.012815967415268834,-0.002482531517587587,-0.021756270834768155,0.00990324801542563,0.024866238977669517,0.015729560969483716,0.010962440071043203,0.005731919928023278,0.001658234333682927,0.016360988415440633,-0.020206149944344647,0.020713375151060084,0.02991624686585165,0.010116891747660844,0.02479507884704392,-0.032945760342994526,0.03722492464111945,0.02258223417670364,-0.019381930720517214,-0.02655811125549804,-0.005358801068345273,0.020561232765063726,-0.010515423318115046,0.008862163480900154,0.0414679834334643,0.03273050860846685,0.03178435419806979,0.047796350885628024,-0.0336301448564594,-0.025517894316895832,0.010859658806283569,0.013756685256159563,-0.04844751251091865,0.004891989020537415,0.03326221913852534,0.14706798453768613,-0.009398240382535082,0.001767237042909497,0.010571563605251699,-0.004030801161794745,-0.014050346407455646,-0.03433934297165728,-0.021189721350495117,-0.04507505137873457,0.01065245117473317,0.006860802680369604,-0.010345403074962825,-0.059873719883434894,0.029839269474733643,-0.026369997738276713,0.08181757150522494,-0.015428416364564731,-0.035390463683166166,0.016659757385142526,-0.06936647538074037,-0.024757784626332796,0.008973468198998035,-0.12474983896104438,0.015522537211410167,-0.03324386247910527,0.11788406366417696,0.051066534738911935,-0.10430651162404976,-0.01331374274162462,-0.02834742808812399,0.09529244355115818,-0.0445791340808571,-0.136767661114613,-0.048375062511158876,-0.220689470545461,-0.07888310493396243,-0.020090803166157984,-0.10024815327269872,0.4992111148855961,0.029308041963641864,0.15308946882034521,0.24967062935896672,-0.10683682379566349,0.041682762535257045,0.0029396711625258435,-0.15214699433226725,-0.017149204437192617,-0.038400539582616765,-0.07991506723765175,-0.11685532387853596,-0.0998484994455213,0.026400997085725002,0.061104110801279185,0.5264955833529035,-0.005098365106905706,0.09176712234186435,0.21614494246042515,-0.09489619689913104,-0.012464536238371203,-0.021648632977908408,0.14780675304808655,-0.06963877767894329,-0.15840746526026725,-0.23061197067973346,-0.10334866214890392,-0.14515243801932748,0.0028689514107127167,-0.0752477156690671,0.23123891612115194,-0.00762413507175551,0.3652876624746321,-0.06489154948079455,-0.10494451332981541,-0.024356467039839853,0.020117341524990198,-0.01165703927952218,-0.13658508729163157,-0.03168948835354979,-0.18565496016686375,-0.5844420540491243,-0.2183475503887876,-0.03239066324658689,0.027447302148199074,0.2895060256882976,-0.03563767768853317,0.5190007698091136,0.21356053255302995,-0.15750304658790062,-0.03162364118021871,-0.024725678829099075,-0.08707242014798744,-0.18499539435934384,0.12450992540655004,-0.11369897426233065,-0.009341275248238468,-0.21215825066061722,-0.04143648608650396,0.22124382415169877,0.28383923930728144,-0.01847932943048565,0.13193362577306209,-0.04989877035018138,-0.3045967511493344,-0.04248769293393774,-0.039830540915979186,-0.204352798785626,-0.2527183761674745,0.28132762140206086,-0.12439812739371804,-0.2814495893279709,-0.18780249192420068,-0.01772704658096175,0.1698976018153583,0.21939554574928127,-0.02978935091934623,0.05594063852401648,-0.2173106610668148,-0.3918215590481105,-0.03840474704657459,-0.04333787316233644,-0.058904914847407175,-0.4189773570764755,0.5239592197083159,-0.29894713496771824,-0.6060678854234786,-0.15948734480008767,-0.027803459175543516,0.09800963704232774,0.30425498258041106,-0.005542913987035808,-0.1982678755414267,0.11709758217046759,-0.4275430232366757,-0.05151972455452138,-0.07642728464351485,0.06286520024307143,-0.4528130566225084,0.18127270197292406,-0.13025527768152992,0.0013102099511283305,0.0557455692068404,-0.06976266197630267,0.16339194469702267,0.15635442014057313,-0.04697711982483631,0.16744712621849037,-0.12751147406088661,-0.3764893420789572,-0.0636791717273437,-0.0656328871781991,-0.37912818814613386,-0.5753345919449163,0.108644822260549,0.22452708193426507,-0.2630900967407168,0.19688241597924297,-0.053493352053765784,0.2597587694808126,0.2307561602277516,-0.00515949157598112,0.548506485640921,-0.08268696691659191,-0.2235204105281388,-0.020294810829810446,-0.04401082916759856,0.05988387100756936,-0.4550567209682444,0.3617001188923673,-0.46485985036735983,-0.009894962776157739,-0.03501682949606219,-0.03614604351848437,-0.021662965893157245,0.45473127593548296,-0.05870732391681961,0.004483617514190198,-0.12401270709256669,0.09006475481146776,-0.019999244022667957,-0.03290056762282385,-0.1868738385495095,-0.2759365744004145,0.2721894737605976,-0.38179877936631357,-0.02501516367224973,0.08625245138044846,-0.025070882248873428,0.19366269787657703,-0.2385122534356981,-0.0132271162248819,-0.13185498295537487,0.11338659194737258,-0.16195160542215664,-0.010767573884371703,-0.010926631884924643,-0.4459933431073311,-0.24396112490496455,0.07919535516438252,-0.25069689033799314,-0.3128904650893657,0.33514002336766124,-0.03800235341696044,0.1534539222823797,-0.03361925840152698,-0.024450461928826536,-0.08250550361172046,-0.0712609946533986,-0.31907476633786086,7.714953110445778E-4,-0.04502601485074821,-0.011865941517441398,-0.24211088037834336,0.08287807067030867,-0.489410780367004,-0.011084469022448655,0.2552314082090351,-0.04412118119897765,-0.01696122821407968,0.1669644951809824,-0.01778989883831601,-0.20574969084150066,0.09447288860558054,-0.1001538209142769,-0.005750237146934715,0.014367560856587847,0.02797761432516947,-0.1314050384255392,0.02944711491777553,-0.26583773745361433,0.21585088105425287,0.3181973329251256,0.004895530768661211,0.06700845713711528,-0.1614164752555171,0.02345805382982943,0.033950928838112744,0.006894456239496179,0.06045411456253481,-0.012237711768140647,8.812025828802203E-4,-0.4251499261957947,-0.04371788257498842,-0.005943663374483951,0.03983150767355564,0.11065565685646855,0.19603833507080048,-0.020246722394253333,0.29576276957616604,-0.2695552785773628,0.00859480825630766,-0.08966709645009174,-0.0471644319802399,-0.03181585862182552,0.02732393195091661,-0.03949413206708578,-0.45556879094195124,-0.046200141023382386,-0.2374369849675014,0.06019435682831323,0.13813375374286077,0.1007349884235291,-0.029460504915647428,0.14266036163064283,0.09752563637929601,-0.0013784923597486853,0.08266971844001018,0.09171796707721948,-0.11885385624142558,0.009865313800967997,0.0010207973480973458,0.04524678058698549,0.05310389153503401,0.06897981367357543,-0.04533822174637371,-0.01856154570679579,0.04735451112858639,-0.005678154002838446,0.060069580524518426,-0.006406185534722586,0.004466188378522672,0.04524322683428314,0.0044700037554426895,0.0475235998260344,-0.024732510554793186,0.029978245131979,0.006252687007550682,0.03633908552495985,0.3117142034237655,-0.07781105620669576,-0.15361620616120936,0.0034619530755794813,-0.019884109175569854,0.08081769552964688,0.10764284111497159,0.01144256180019645,-0.15580754598065466,-0.031202612318587897,0.019215071141226434,-7.164306834327004E-4,-0.025750243732230643,-0.02484187263134918,-0.03430295988521715,0.12268509548980645,0.02156153702286013,-0.019511024285614954,-0.0243349422659388,-0.022792074605066503,0.006963734254530268,0.05134903475295523,-0.014546152004027842,-0.07735581421373754,-0.0383591633096217,-0.011990871440563333,0.02408876991265291,0.005212796451151554,-0.029015312243527623,0.009430670352049348,-0.010642198192893786,0.01752934178694638,0.009900638737606025,-0.010796916593469355,-0.017926780239970786,0.012425859575606218,0.03385082697380172,0.026724037125957726,-0.027679117682585488,0.004578431138077969,0.026016283676504416,0.004839463453822676,-0.02486267439475798,-0.005569802839159036,0.021829510231848877,0.00788176463611575,0.013043273564023794,9.171469859314829E-4,-0.01384107276081779,-0.026743012566003532,0.018442895146814554,-0.020493687573193798,0.0270604506084339,-0.007649611403006469,-0.021587509985659614,-0.02297072457787642,0.02097808692376256,-0.03239373075810533,0.01606440716750005,-0.003423287781921712,-0.022353307034991533,-0.0027708562767506315,-0.03497194484585301,-0.005900322835668742,0.025847983083073026,-0.02416976931031889,0.033932664892719774,0.010136201237254304,0.023681759302825983,0.032459096235043006,0.026028491657749897,0.005038368452362704,-0.006692040948616359,0.013412032368077337,-0.02083009087910604,0.014583448474285145,-0.004662700143322821,0.03292612767413282,-0.035300210589623376,-0.008511919411971304,-0.027365994213571863,0.027142096949285252,-0.024552139237353582,0.0011550884030911424,0.011384796943087153,0.03129786781851825,-0.006184796011342081,0.014609420263611384,0.0307629308465323,-0.0066739453601106094,0.02904795146471081,0.028358427624495357,-0.018313511777665565,-0.015374401497179814,0.007918549984434189,-0.009399969056189316,-0.030977142073878798,-0.005846017455743994,0.027765551560907854,-0.005016463329414998,-0.028320149986151625,-0.027579209132753725,0.01626831090794581,-0.0037886709608661155,-0.020952764150365046,-0.012610985050418164,-0.02116401609158268,-0.03159205304310458,0.005484309678868926,-1.1183260578159178E-4,0.021481084538240616,0.06651387865672025,-0.022876375368326176,0.04043633965602563,0.04336953838632996,0.03486602751412462,0.010056184704134708,0.01553919157946157,3.784073665121271E-4,-0.017098059393319858,0.006896124734602873,0.019895514649956765,0.02586006289265607,0.008350367044879852,0.013095981236074455,-0.011379409672516425,0.15643574187018122,-0.00757104083932627,0.1121153798143374,0.05623165082992967,0.08666576277039813,0.026368884771647567,0.003504330447395957,0.005747355859604282,-0.12517027789283744,-0.08002152592912215,6.758443808682444E-4,-0.03110877086825929,-0.011975948355011898,-0.0329537785300104,-0.04364030073495863,0.19853722427137638,-0.026643857382881456,0.2330852689884728,0.1421714391035155,-0.04513955658295617,0.01484943635984764,0.015287277133035466,-0.05571791650522198,-0.11895827870889619,-0.13057498902024728,-0.06748018926567613,-0.10116503208297725,-0.08997442883680536,0.004018095237754951,-0.19147584470945062,0.3436985174204353,-0.011291038310668782,0.38791940526830426,0.10929938407502268,-0.09120307512773543,-0.021380163812680836,-0.03771407590013367,-0.10284211748696558,-0.29392395268357696,-0.18022087074203852,-0.13907573703753645,-0.2589659350928149,-0.10948150318164562,-0.00817433528465171,-0.07205681709719572,0.6595561727619385,0.02793089020320678,0.44458244384952517,0.19442943246103425,-0.19429516612843825,0.003072029622957921,-0.042043539590819655,0.10271464143473719,-0.18434868467278578,-0.11263408315403062,-0.3739072297623018,-0.18742472208219357,-0.18201539411847248,0.022547765170667314,0.1538211254711187,0.04269434359922002,-0.010475893042681922,0.4145513892171942,-0.153879123923752,-0.11974227536628257,0.01823383576906241,0.003038237527179167,0.1489938134639647,-0.12421795266530394,-0.17161565304313606,-0.34444287678888547,-0.2194573290595116,-0.1286915258992205,-0.009610687673601997,0.005928888310702137,0.1799367024645351,0.01547055857015494,0.04107637868617608,-0.19808220653708666,0.005107766033905907,-0.04304128735272902,-0.02753994885587972,-0.016374990129017376,-0.27677213472487366,0.263463699693417,-0.5891656575667237,-0.48379767791809,-0.4673874850954364,-0.002043496856517867,0.16077156346146632,-0.1586141939581214,-0.037007056413923135,0.23977435298923458,-0.045868655320206356,-0.23486503909586057,-0.030752291666840514,-0.04888897207433511,0.42036050880083475,-0.2116263666738457,0.311519981094653,-0.5355661402715297,0.13339079741458734,-0.5857229421468496,-0.06640325976561567,-0.13392510729166526,0.28548237311410973,-0.036468534265706856,-0.20492196686811268,-0.3046184664693997,-0.11957972593396678,-0.05560657204942211,-0.0595898235697909,-0.11331066161471484,-0.10711378829711987,-0.05627301746245164,-0.27764844671513644,-0.21517746155585474,-0.2703302367608565,-0.07515867676603688,0.11248063866076045,0.4443496905946147,-0.04367859218513074,-0.1600603360466486,-0.17649690520388067,-0.7751301158623232,-0.047042911385480966,-0.05339026975880297,-0.025646789647834907,-0.08167923144312743,0.10154465555551735,-0.36515121793080924,-0.457093793215525,-0.04287186669768088,-0.0686186732902835,0.2224720148046675,0.16786027420281185,-0.0682974061829743,0.2862587896225965,0.1263765467653718,-0.0795972564095577,-0.09502326107879384,-0.05974096841163812,0.26502397910031045,-0.305432286862372,0.07659494370794884,-0.10082186669493653,-0.4230957326397578,-0.1412510583516696,-0.07178284386570156,-0.255851103475865,0.16677285246079665,-0.10386380397222501,-0.44339702325644087,-0.08277192371475993,-0.12677915061079806,-0.058439044870215374,-0.07283551827988881,0.30453734653496317,-0.12310863883456766,-0.15947074617964246,-0.0692337009317407,-0.5498049748276954,-0.32759469921745354,-0.14389484575218384,-0.020320674728768175,0.21948613174772874,-0.07388189049163728,0.20398574985028378,0.13919210506546176,0.47266731925935035,-0.10135174708661429,-0.10147434450788825,0.016388710181602557,-0.44734361678308027,0.2536736959047834,-0.06993775048892958,-0.34228255378069244,-0.3356262308090955,-0.11977566708521188,0.18040092934042495,0.02783252489989844,-0.06508837355603005,0.07662584761037718,-0.06996102089925972,0.4415701943045278,-0.05963793567914722,-0.0903894654781255,0.046528428731158165,-0.32682651710766686,0.3857362803994403,-0.3001598685681822,0.08195455620076939,-0.49800230853704297,-0.13855312505363657,-0.3387082360255473,-0.13623032292563658,-0.09775486492187502,0.05767821483244518,-0.16039087090641085,-0.1535859653715329,-0.07403260587821767,-0.06682535382989448,-0.06282158271357254,-0.14413986127206785,0.3298084041763924,-0.3023860357979212,-0.05810029444151149,-0.3396601920515146,-0.10905523596742496,-0.09013825742997994,-0.37817486341985407,-0.05245102935301639,-0.19755192159687351,-0.24408860083549097,-0.38090425800376765,-0.04305560987958851,-0.04589183542142077,-0.186479294932607,-0.10936612056705784,-0.2216573077276151,-0.10271284115825476,-0.10448758134320227,-0.03710294768684629,-0.07265697609046727,-0.1437815948050368,0.027030920277062054,-0.012110434982134254,-0.0019369232617536371,0.06998843406292443,-0.1069030659068254,-5.12089567174442E-4,-0.011600197924913166,0.2827232698730643,-0.09221534817912863,-0.10723799839420278,-0.05753995180396017,-0.16770328087279882,-0.06149839469742162,-0.03851216264732086,-0.15411961354416198,-0.10650760472613251,-0.052337594898269134,-0.044017593384283245,-0.3489560482089613,-0.04934597352632292,0.0026043308788458223,-0.0024412814656128616,0.2758403014627322,-0.1549384796526009,-0.17375111604263652,-0.08755975621769072,0.15183976166087904,0.0030271552837047066,-0.05412155869896494,-0.03916819873102084,-0.3527925314336015,-0.0393508784647078,-0.49156325877676954,-0.10012427560942902,-0.0546718827217437,0.007104370261346267,0.006028073570030586,-0.14264985256693274,-0.048211110956807614,-0.20527155320880686,0.18322677046980854,0.17521818467793904,0.040754026832829804,-0.026377900268090067,0.06642474532497153,-0.2113597524064506,-0.03873827124123424,-0.19748525921847754,-0.23438118248789833,0.032244232126018894,-0.014721214730535387,0.0016218457654375007,0.08520714251586754,0.024921938949631295,-0.15022852738898615,0.07765043355572455,-0.06347129018320355,0.0027367123304542825,-0.024604006710945304,0.0879847611324663,-0.01137304618243041,-0.0015126544422044076,0.05320000171782977,0.17336154159243297,0.15488262551691176,-0.03268980687386808,0.03098703111661144,0.02958286874783935,0.04551085294990804,0.13485789320517563,-0.11137761035116937,-0.2108700355196983,-0.03529920152384457,-0.021371675818032163,0.10289287611714604,0.04205542349308018,-0.013501851288798494,0.02363185956853986,-0.11547883253581039,0.05343574570541857,-0.009740960392504586,-0.025323923065409155,-0.06769671295618289,0.02527023131701945,0.2660174651468367,-0.07890544602824043,-0.06676867233150331,-0.013254448237997207,-0.024840606112567283,0.05791012843256848,-0.049051275086996596,0.029024096029990787,-0.059126489973282924,-0.18683414626724057,-0.002105797651730163,0.0028237913241459466,0.030253911957622105,0.025803952704173624,-0.03536289547580501,0.05860774352118323,-0.003597566760857746,0.02271470985786411,-0.030449454590676966,0.01937707568190292,-0.006122220415572164,-0.028643452395322913,0.02047551032712638,-0.0815378283059894,-0.0782464770220706,-0.022951334529780452,-0.026508305083467812,-0.03372348664031431,0.024562337725237977,-0.01329848050647126,0.012732223851218576,0.01271905986193486,0.009521174747076132,0.007578109185023941,0.03419615745852176,-0.00521185754741431,0.03363593371278425,0.019276877068849434,-0.007954928791899888,-0.03319064051448022,-0.03538207638388218,0.014637462598161635,0.00797911629705525,0.028137464428511588,-0.026114021247996437,0.020668772969767733,-0.026792972139319478,-0.02072558790590074,0.021140999926714484,-0.009732797718356279,0.002084519777346562,0.023409702327363065,-0.0035189314777061623,0.01779135854848874,-0.010262226636568197,0.02807103386907689,0.010255101133624524,-0.021648857620522443,-5.255551978623416E-4,-0.02669579079910216,0.01653116805838694,-0.020053579551983232,-0.005930254064475147,-0.007016031433949771,-0.010023604489111482,0.026836291632907433,0.013390580295575702,0.022865095865486414,-0.031172742123151954,0.014625233958370232,0.006527319561487364,-0.003062775199178413,-0.005611026352484221,-0.10586307059958867,-0.04044928396335759,0.0648630376057166,-0.053216788567627855,-0.020854134915637628,-0.05905622791830076,0.014426675754671693,0.008430143851132844,-0.015515077645017182,-0.03282425010104568,0.03604731480632319,0.017516475989622176,-0.015693015833908155,0.028256623755655064,-0.0161477415062705,-0.12228093089307566,-0.06165295767100286,0.07672639619412312,-0.062347413166267414,-0.054788050480093414,-0.02854878824790311,-0.02513054465714252,0.0017888745382588329,0.11226631275379365,0.0163496974215065,0.08823425305431022,0.09597729560831796,0.2381445213603068,-0.012572232892421256,-0.009619213411158749,-0.002967814959715628,-0.03724333791629277,0.09137658621843907,-0.08271832693936197,-0.04010377204362127,-0.013400356279801033,-0.032798060900007246,0.024476608070669,0.18908543882836906,-0.03419607027781691,-0.02227618054098947,0.05978072031721272,0.49765001623523186,-0.015563237106740537,9.076560053535368E-4,-0.02519861905314358,-0.09996483841080943,5.734188881569222E-4,-0.05627751765084139,-0.09500454055718209,0.07572752559600966,-0.012159909690086778,0.1155838390937169,0.2147033367241316,0.01237431714151311,0.2603245351244095,0.04697147720163154,0.27365192344792244,0.020853480788569287,0.004198857519950447,-0.13492666634193456,-0.21662197542535358,-0.061908910525860436,-0.1886684238526322,-0.04609752910745425,0.1110055249709412,-0.027196593037109196,0.061202303077929926,0.2941746112644905,-0.02362535768457394,0.6387981188299475,0.13698242759320006,0.04565183449393978,-0.030035151121882465,-0.0014630508850225438,0.05662770829270604,-0.0020078255794886077,0.07347393377351226,-0.3822489544530776,0.09954786770712734,0.11985339456207288,-0.023998597777056187,0.21161337396019284,0.44058801571851686,-0.006925528931365658,0.36321776058633926,0.056113576493105104,-0.07168988106903201,-0.029540089717090656,-0.02733487483476021,0.08820925217356085,0.16585415566157954,0.19478658576326102,-0.558619881538737,-0.03763526603163238,0.1313902014858656,-0.039404594218113716,0.25857374478891243,0.4624758751822319,-0.030563085282498827,0.03312244129231751,-0.137247627400873,0.026658526037166997,-0.046755105952824075,-0.06349319945835478,-0.272060277602609,-0.3044946894111008,0.13919824674397327,-0.35518761151170813,0.2065683599426599,-0.12366982405204663,-0.06675458629249303,0.3523350757174565,0.2954066925278339,-0.010191372890971502,0.2153142251686711,-0.09883733295528464,-0.1333084194925185,-0.07310528688932989,-0.035987860064688064,0.009655409084022328,-0.4261383706252878,0.018684300475902877,-0.4339664337137545,-0.09745498757156343,-0.04034022599070226,-0.07503831213361173,0.2130281043851956,0.41782354965953605,-0.05858213935072812,0.2402071709040429,0.12009758335074605,-0.13162450369703066,-0.06075803583273305,-0.0924886819917315,-0.020825669576850808,0.04175798393990509,0.06414438774463833,-0.259296977874021,-0.1367302383052403,-0.09610743589118409,-0.05404575555592517,0.06713237428443503,0.06285044948257441,-0.03891060411532733,0.07281108735396015,0.040642425251776526,-0.49498028492744817,-0.10733294970029811,-0.11838793997533399,-0.28397448887261034,0.16183797925709742,0.21792723842473644,-0.23915888723218331,0.011879030303412638,0.10099764910076124,-0.10479444977648933,0.06023936389307199,0.12960886045018252,-0.07862192472381054,0.2603348634164974,-0.0010060107936959873,-0.32319444394308844,-0.09073325186634573,-0.10418166730541815,-0.26401788457619274,0.027450074397593026,0.14728399221396518,-0.3308191563375787,-0.2210106713739888,-0.07029744782045787,-0.12205142253985189,-0.047874785337044035,0.29661908092089734,-0.12549049550343405,-0.13993700562520053,0.2832043675992184,-0.43574619250987895,-0.07434618337120422,-0.14168443871829303,0.012262149182886178,0.17106395272647673,0.07822845463507656,-0.42484569160375507,-0.04846885427749788,0.15788455545202298,-0.12924883265168416,-0.05073700149120551,-0.1222968576259538,-0.1095418829818433,0.12351716154234794,0.019226389981540692,-0.5809067970791147,-0.13941588429792748,-0.1459982188341504,0.13471118448909952,-0.002099609004355836,-0.039395950138756006,-0.38570821308439424,-0.24117372782085708,-0.2878902542670336,-0.17934731340962248,-0.03370722590216645,0.24714780119051719,-0.12966874319109842,0.14797667596590192,-0.351628353198906,-0.18874858710193226,-0.13753970261951518,-0.11576028633619076,0.013002868848558901,0.25107625702940123,0.39942565692935694,-0.3418754328696914,-0.5731953057188025,0.029507529421549526,-0.12969113962661052,0.2675580763506793,0.1823204873807162,-0.11376216008983035,-0.4091045408413242,-0.24113750884623794,-0.6838466062014565,-0.12106885913555974,-0.12417779464355118,-0.09341014803695386,-0.016510866055057145,0.08457549587580378,-0.4324842498670245,-0.14265959072714948,-0.010756089252502031,-0.11743208148925485,-0.032588947808579856,0.12633793428239473,-0.11597351605093272,-0.39808850791614836,0.1532358722178954,-0.31603911203039237,-0.11036810290378475,-0.09879672518344189,-1.4769431116459222E-4,0.11048241700519798,-0.3673898670361071,-0.24729481192525607,-0.29262879060004304,-0.018573300164686463,-0.12176655342604618,0.21177593091168045,-0.06291892789758469,-0.07703438332632132,0.07574320602830004,0.07063729994817132,-0.20106754082704753,-0.04770571533951841,-0.045018322595844575,0.004540868200905905,0.034207265105003805,0.1395382955820857,0.03181915469257666,-0.21397140995842523,-0.16448649423555967,-0.1053189646985853,0.13849791062385977,0.2134302779140301,-0.04531026866450912,-0.19929587510682145,-0.21196923887782057,0.12637677121405327,-0.07734949413187446,-0.039318666441524,-0.21190289489722233,-0.18212606167687626,0.36915453849329594,0.12404220218334866,-0.2396803294972247,-0.23162383133105904,-0.06677402819027604,0.2690427014203175,0.341562111420575,-0.029254499918279525,-0.062928940272926,-0.31639154821130183,0.04423168991892238,-0.005370121740942831,-0.015550395362923873,0.05553915718442305,-0.03956651512905235,0.2984259197404048,0.11147071713164833,-0.1154371086401481,-0.11766303647420599,-0.05311919220201133,-0.02390816139698001,-0.09209780793351775,-0.03529386205348984,-0.19074655553839634,-0.04942836272333442,0.14095766587050004,6.470460531760743E-4,-0.03711415882139419,-0.11939964428495956,-0.17770055320600434,0.021598068979127513,0.15142843005044573,0.1157581490599539,-0.19543708279529498,0.005085921653969508,-0.15708180217925322,-0.2651563405526235,-6.752492100468769E-4,-0.18272486320765066,-0.16798123370496115,0.3203305088490648,-0.045916770005766404,-0.007188047290043912,0.20964609364875347,-0.24385629097068673,-0.06230270975852083,0.17085631581107516,0.3625754829055217,-0.18537363832556597,-0.030740934103049962,0.0867910488630503,-0.29969034381109394,0.01275823559241519,-0.41055869866119443,0.16933585015026445,0.056633905195943905,-0.03854651812580444,-0.01444118535086906,0.22986993582607967,-0.17161251749152925,0.25336549827056,0.0011178754896715962,0.36406011232074187,-0.12417258609445511,0.01596890791205157,0.4082592807540543,-0.2851746530930192,-0.026679101716259434,-0.4511139767879134,-0.28489604140525987,-0.11279371648865673,-0.003293606158293884,0.019336871090715472,-0.05174026717406693,-0.16679139785773153,0.3125012191379694,0.1196375518884703,0.3997014219198051,-0.014665060374181613,0.02917735229293022,0.31540089763123835,-0.09959769737468799,0.011800629852564753,-0.2285689568321104,-0.36440553317152863,-0.09564756808569048,-0.03421717125147263,0.027647266573208307,0.008499780966881082,-0.017328084139184532,0.06838405655158092,0.08038904514135736,0.13159987643208418,-0.011932268858335288,-8.989221619584045E-4,0.08958085285449822,-0.04076146793469375,-0.010377345364046374,0.047541251485222424,-0.09318546442849816,0.012990222731896088,0.0016780470824296911,0.00887344275887493,0.023254793662946967,0.014361186259075297,0.022459613861179447,-0.009834488816627275,0.025443151615002896,-0.004306256840118625,0.02384821059405446,-0.005765530430670167,0.057019363513506734,0.0190211059544515,3.729828087665707E-4,-0.002757981000277807,-0.03159324734448573,0.02051022183567681,0.02315144109957734,0.03141018700171926,0.03531778547539266,-0.01577443362578613,0.021048177791716242,0.03374067446496486,0.007102472152993481,0.02617821763680732,-0.03158719059100892,0.018848283726429056,0.01826007596189465,0.015006478477126854,-0.010887916490775315,-0.02551441032039961,-0.013207727046230985,-0.0032351112564630922,0.015975487162493987,0.02584373214314232,0.008684598982971263,-0.021817178383373364,0.006360880743681844,0.0057822243091733855,0.027688880471141885,0.005475665929343031,-0.012735462234912114,0.01788690383200989,-0.019385124493418577,0.024883383961979606,0.006767071347888557,0.030882989897447442,0.0019701091221170316,0.0032062612562196993,0.013034891156692992,0.03759261274306169,-0.0299031440546945,-0.004304331034472295,0.006288569371434012,-0.00919160296167337,-0.028674690616993917,0.010068369065015799,1.250284640911623E-4,0.02310928782889383,-0.04891012251885334,0.02641871997217649,-0.033435342833473734,0.0069754142887965675,-0.09445753424732016,0.10140517701819245,0.19016781638180344,0.008265302017747984,-0.16611226795981598,0.0302996244357588,-0.0267257753524906,0.04181147121922984,0.2543440016126689,0.02207938467653329,0.010071783821063524,0.08260648993115918,0.22410892070424018,0.0083885379900624,-0.0054184368437719425,-0.16508980501071938,0.10642184188564172,0.17118695957059699,-0.07867502755330535,-0.3687605021288026,0.13054936097041855,-0.02720652084688749,0.09029109085143534,0.363632239893455,0.023868843897939338,0.1384055837993568,0.09943172733969743,0.40868121369841554,0.027084019537284634,0.02540932515739438,-0.12986912696239236,-0.13427543470671444,0.12579171708226342,-0.17055873602661223,-0.5005330225279356,0.1921138665879226,-0.02728123766772245,0.014702199456776211,0.11892449292787062,0.030094250912054414,0.3178585284138118,-0.02135291594948575,0.1810113084134228,0.03742573938825448,-0.04523490709489737,0.11175788868365702,-0.07613893002645661,0.11029815401534349,-0.3326176122436475,-0.2769782840654232,0.05632123308723756,-0.001982120326602649,0.06343751464991851,0.09831871152923902,-0.0056553851220558,0.5256826257335293,-0.020178190296987267,-0.05383523406197802,-0.02014008134843995,-0.020335542655771897,0.2202644235029274,0.4080486589137598,0.44500745371055006,-0.4971457348777512,-0.0928401628720761,0.4199694647541966,-0.0576991483907785,0.16905176715525225,0.09940537181830666,-0.019598546550829474,0.08935605926433261,0.032415623160413895,0.15031197666908785,-0.015729592873928996,-0.061413282612411135,0.28625237549639126,0.21822766075592231,0.39237995794191094,-0.5773041223049493,0.1568116577684792,0.20088067324732234,-0.03162147225204434,0.1475777487386906,0.2764252130220405,-0.014883446893416143,-0.13918938841117426,-0.1898935419778716,0.06678971152126034,-0.004561454998260126,-0.07520476944783477,-0.30980494338104136,-0.4110012060540226,0.3644891826408266,-0.10473190435926194,-0.04352886170098429,0.2178264345112319,-0.06068185435045528,0.31201584073584104,-0.04547778426096455,-0.031534063483772266,0.14981440651084493,0.03801646874155717,-0.4836457637628398,-0.09729578872956703,-0.046914163427844664,0.24360359800742437,0.25646888551778463,0.31476989476883327,-0.18227600820270773,-0.14441125747127653,-0.10090732100497737,-0.10106657053334632,0.16009095133306606,-7.590511693985171E-4,-0.05743782857468296,-0.027449597179838487,-0.361573627955963,-0.1652041278571205,-0.046627102674992836,-0.07552279169565237,0.11668943565573328,0.14896806059340265,0.0028785617140152943,-0.027676471061122938,-0.01353577229092858,0.08843639514088537,-0.09379090548826416,-0.016501153599461166,-0.050641689362889264,-0.06812536643195888,0.06358139289683659,-0.5652799835047856,-0.7989479112266006,-0.06727559631676212,-0.10918674530802448,-0.11914682003854464,0.2872644116074845,0.3318307824114241,-0.03992592871518684,-0.44610354610483205,-0.1899246593271943,-0.12764086095015842,0.13085263655574758,-0.022529953733689403,-0.09883607934008788,0.021176991348008507,-0.055570741693752645,-0.5076080033404045,-0.0627315952599112,-0.1180592493027274,0.25716483242748966,0.3008961042577336,0.025375897127197414,-0.15672428265367602,0.17210366529750581,-0.29678672249635374,-0.17929751633901667,0.15719029706635365,-0.07976512210177598,-0.14569455377217272,0.16504960130576718,-0.15283157404647713,-0.5606766052821185,-0.07818616129828568,-0.14084375514983138,-0.2662926199328732,0.29291174833389555,0.5283003248925203,-0.0014691692785150175,-0.19165251717776127,0.41654294825147126,-0.13338447898225803,0.19019471011735056,0.17109799346192736,-0.15336803843872243,0.180365601472398,0.03612181551363849,-0.9044772120555835,-0.11084983360787237,-0.15506657596746373,-0.014658068890677412,0.6073431382845065,0.21745539213083848,-0.4619547565116752,-0.161168481163068,-0.1307201331427966,-0.18286819941964172,0.10758832787676723,0.58235930841953,-0.15251784443850924,-0.22639339874008427,-0.07635116905643999,-0.8797975426445432,-0.1491259741549348,-0.11143189125094356,-0.10037033493159649,0.2884560339055065,0.021525317196174683,-0.4281888159020034,-0.15540996907940133,-0.44868208927406167,-0.16515330079193477,0.17721618062126637,-0.08806186018500693,-0.08801994074993287,-0.5671427681279703,0.011811168990423606,-0.5114773661236581,-0.09249986677292057,-0.11665428177282396,-0.31078669649335156,0.058813445982354454,0.1789720056089725,-0.33258946947093293,-0.21419454142149794,-0.09991862965124616,-0.1820140652143479,0.3880819027574991,-0.2979723702242784,-0.1237535459046022,-0.2688234348496365,-0.06922464556838968,-0.2784735454317736,-0.09316112742340567,-0.09638177854022287,-0.07491074451226386,-0.2715528765662995,0.0013999409562372453,-0.18379947110499048,0.041882431284180954,-0.19695695136487215,-0.13988642781020783,0.23435532530146197,-0.03942547523373775,-0.08576321459645911,-0.18579575280492502,-0.051877157578727885,-0.09881286620042784,-0.11699545043259513,-0.10481605583556342,-0.1574432579376968,-0.14921593412384188,-0.23263471839757138,0.2952616935258426,-0.033392374081978336,0.10436845049761552,-0.14193508840378363,-0.09709247107913155,0.7354948997888074,-0.05014310210741808,-0.26317291810421045,-0.25726514386348054,-0.10109323117483737,-0.08876218595216212,-0.09398488673799096,-0.20769466876397563,0.09980098203485246,0.3002561306500343,0.15075671394064513,-0.06788916378953054,-0.22900916258151405,-0.11470617611262598,0.3417174395519759,0.16026856217544322,-0.023773900060471597,-0.18657544194830158,-0.025734562697508314,-0.015313802363750333,-0.024019517961905462,-0.07425744209984315,0.24516488715581636,0.48736792144381885,0.3729810708697225,0.22805818219374566,-0.387218493674745,-0.09270545834539154,-0.06949329203287238,-0.01757665111238846,0.1028023691967349,-0.0362240004660347,-0.04477034715938369,0.11681891730587779,0.12848018299353756,-0.017022262044676672,-0.053513540106996306,-0.2557555838981985,-0.19726841025689876,0.00720736263295548,0.3607713880059432,-0.2935121883290047,-0.19533175926849133,-0.0606685735658496,-0.23488887043784581,0.2910617621484801,-0.01128226879342559,0.13293212981503388,0.07962995258312304,0.43309030974463364,0.004959983584010913,-0.04098712981956816,0.07498098082787057,-0.5083680888592959,0.3441086684598882,0.24343393445848308,0.20300968652958998,-0.2623101849349294,0.008087383026416898,-0.022745975362343178,-0.23014637571485577,-0.04257084655589048,-0.4477210772992867,-0.028585713785228836,0.13182285748585817,-0.013819586275032002,0.0017576671643208049,0.30896611117322387,-0.353881074121181,0.6696434419111887,0.18323144712736938,0.6793773335600741,-0.09623657018995382,0.007205931491823167,0.4625385044952747,-0.4318529707668068,-0.030256103850764243,-0.6661281153126697,-0.35583095193689196,0.06743650010575013,0.015543782457740801,-0.028727659638468385,-0.01954020205689283,-0.2593884575893847,0.44382116583401227,0.13004297924691155,0.44702106080952553,-0.04615177822661862,-0.022416715765665216,0.3566339668025636,0.08202034838622013,-0.030295413608100667,-0.24096779407024715,-0.3000497402079846,-0.027438192047601853,0.0034784074362375164,0.005619131266418136,-0.0024167031642868724,-0.07155629454659511,0.10434788004321156,0.0518610859356995,0.009922114447362336,0.027114334745393452,-0.01116014210441103,0.11160367089855122,0.14028515198786953,0.024967549666757252,0.03854841242745722,-0.04673853972564461,-0.023257461358302502,0.018246192583925028,0.023312138680573254,-0.0066778194486006685,0.01116799600632434,0.03131382583231591,0.03518974464649688,-0.028611177744070963,-0.020091624204952963,-0.03442873840540136,0.018311773044438838,0.024381158459858995,-0.02987575926562706,0.0230682268912942,-0.03333363000286435,-0.00999368703801269,-0.018163656063761812,-0.010427885414423094,-0.012278151963721971,0.01516812724241332,-0.017488767331891298,0.034444216044130026,0.026218998351053305,-0.03393548116861168,-0.01526889684965259,-0.03316319165875219,-0.021353375263652656,0.008571346896332127,-0.0049102409078778915,4.675253021491635E-4,0.02352480344188696,0.03217854664309265,-0.022676342093779178,0.038034155940147224,-0.006992003988584652,0.04137633263637033,-0.03280612562500213,-0.019414461239751622,0.008683391849850485,-0.034874431927682276,-0.013805273312868481,-0.03582188915167528,-0.027867723611163416,0.0058514514023543145,0.024379426562708584,0.03091659913278915,-0.03322988181078702,0.026669630622933174,0.05214519954422992,0.03453814550064462,-0.02763293959175225,-0.02016736231515372,-0.05568401577293083,0.011578726118471584,-0.02960631023157744,-0.006814012013730744,0.007072943010902169,-0.014574133383629784,-0.03666815883220463,-0.01663700253743236,0.03764409038002701,-0.019040944334643872,0.014666827323377834,-0.008660572973528458,0.13674086990478554,0.11602651683556162,0.028888747004772588,-0.33945500319888694,0.06124821874858384,-0.020640716644696532,0.01262154505935467,0.31661814554165585,0.025325160265267377,0.10834757167039152,0.11861929362060637,0.10366828761741549,-0.009921495108495715,2.0150932018391614E-4,-0.28503808952169013,0.05199111411911654,0.07304076805277089,-0.022055184018622,-0.6202430779643529,0.3582723215987315,0.0034447482983891273,0.02263137333070842,0.4477633247773934,0.024545821625676378,0.4946138345609137,0.21922323018848225,0.27053603553861655,0.031803278568061887,0.012392121812051661,-0.07376369641952232,-0.08023863689662394,0.2220215172840148,-0.19980612045553678,-0.6289066141288374,0.3258776340864878,-0.01573382933129575,0.038105729323223356,0.22190086936295872,-0.03435977020607622,0.41886794736412925,0.04264561343987935,0.19630995376982452,-0.01069598788678048,0.019368102329247374,0.06886433142487886,-0.15961458811772938,0.30509799415567573,-0.3406400810479424,-0.24362891325933758,0.23294136711226696,-0.02600345156298739,0.0548364852713171,0.2708604676356887,-0.040445318121484296,0.28157029709523956,0.03912597160028722,0.01743571827487317,-0.012860178449565576,-0.035927274154299395,0.19491609940049962,-0.0551755852088762,0.5774203602440584,-0.41468108003355997,-0.16929712502218555,0.5603908225784124,-0.003107144298369174,-0.059171717430410394,0.18563712432562007,0.008854452698627953,-0.19072758478073928,0.015337329061077702,-0.17186024313945508,0.0013537487294775848,-0.029105442797484,0.17602980965933726,0.08488190539922093,0.3941665094787277,-0.3052697855323724,-0.0026260194478026693,0.34770703868420993,-0.05556485396580423,-0.01430714082516192,-0.3714238164997469,-0.02660905970419383,-0.16057422574647384,-0.23352194473243895,-0.36441464047338085,-0.017043303631514024,-0.030736627588413997,-0.09623580716687576,0.3355090168735901,0.3501788603640438,-0.08007732345375815,-0.033698236453084854,0.24449793329795577,-0.04165894808957208,0.01666897171310316,0.05026460432155747,-0.04321402156079818,-0.34371634053672145,-0.36310637260644046,0.2253088973050936,-0.08221295724917678,-0.09578876690699219,0.25025649101661934,-0.02797204417576659,0.04230650632154827,-0.14621880759528672,-0.4832850342012764,0.005514366471026884,-0.08198742796220027,0.03799227677211129,0.5477673707127534,-0.11242452089586849,0.20595618348525738,-0.03169936127258077,-0.21199439587576532,-0.09378228141554767,-0.08284513694366187,-0.1019496985490097,0.024459411918484112,0.46911066284391195,0.03187131996345318,-0.03990208134361737,0.33764173714896434,-0.15261080847720027,0.03910397065291648,0.149050445151054,-0.12054065333872989,-0.21317168001099035,-0.25606401427257147,-0.3469161140806058,-0.0987518767671148,-0.08399008872981706,-0.07346286571857366,0.1270123275400254,0.2740674511890118,-0.16571699011275537,-0.17312169077417516,0.18005304110794795,-0.17491318379160625,0.3253868122362258,0.3131415055990065,-0.1432677690795077,-0.2270757820227688,0.07824370793149175,-0.3005672550885796,-0.08070666783941076,-0.09715861326234787,-0.07826736824257724,0.13462316248621992,-0.11619572776436402,0.022832560143776232,-0.288778214188662,0.029944372011165822,-0.13233734204412115,0.16614130634150368,0.451891214742146,-0.0955176238324948,-0.08574261869938421,0.11301379687514017,-0.9420589507752025,-0.11577069217955677,-0.08374287505994672,-0.29767632868778304,0.2286978082894318,0.3140383003774378,0.17656985871763828,-0.6578042894529257,0.5143653036927056,-0.18444233632779275,0.06877999182332027,-0.013471907088031383,-0.13987299186020857,0.18664074289051555,0.19017630867627705,-0.42736907190516865,-0.1451702030459326,-0.13774463775066612,0.03913138146321811,0.2127216409616815,0.15110320484302484,0.03603265006815507,-0.861271833376073,0.3041385636857746,-0.1704944531915095,0.18147370483905856,0.12844132180436135,-0.08139828046539628,0.24906079397174583,0.013399822587180683,-0.592526509730106,-0.10181855920283812,-0.10386814968575844,-0.029841688844304652,-0.005235120013595145,0.04761552517474002,0.11946284845945007,-0.04599375779039626,0.1775767311834093,-0.1698940157896612,-0.1065618533530637,0.14616431754427103,-0.13356622849836966,-0.3019911347902726,-0.01199924085955994,-0.07698616987221288,-0.10600805804570355,-0.12150841534485118,0.028348976857136887,0.191217541973885,0.21666263410637676,0.12127443157620077,-0.4421079712323407,-0.007680315684283565,-0.13471616979689285,0.15894457556813218,0.08261961014151924,-0.11652034332102237,-0.021581268382123032,-0.1965357526475752,-0.1529116600073359,-0.1017036862960603,-0.11129386938463179,-0.14339122892798498,0.05886283647509355,0.6058708032859162,0.3131048298360292,-0.14731482993947842,0.1506952742889251,-0.17285448219627683,-0.11296286080780575,0.40983338105705297,-0.07181625918165528,-0.6685506578478613,-0.24127917454815292,0.10641665225143178,-0.10564313219784391,-0.12469408756601208,0.03152498039703432,0.07558232298878122,0.19688844895481986,0.2651058467256008,-0.3958767920164169,0.4591825240702987,-0.10703726034348392,-0.09249683282476884,0.2651426209859951,-0.10998895934373057,-0.3612800670783911,-0.34508272010127305,0.12281882349857687,-0.06321895333375266,-0.06418006461174167,-0.22262244298754158,-0.07143535140387508,0.30339906981068576,0.06489863189323881,-0.14249473452723257,0.2038319145214295,-0.07843709731426057,0.2485765052056572,0.06519454751428364,-0.09417173663340409,-0.5266282473845155,-0.3015210560676856,0.510422182023359,-0.059124579870028324,-0.03661782357438212,0.10789944425997625,-0.04840243963767024,0.12546493828609567,0.2254064546531672,0.295921070595828,-0.1492964734069489,-0.09060359199972466,0.16814615206364755,-0.06963550157478139,-0.038230441476409326,-0.3328031459448254,-0.4761508314037655,0.4827137805532112,-0.04090622408267053,-0.025705468612558423,0.03482926937160916,-0.25509900576893213,0.17156635400168185,0.3925236788697524,0.01280622433294784,-0.21398053941487613,-0.02963118176271587,-0.07988615695353851,0.09940344753841292,-0.00835363935295917,-0.08128551441303332,-0.08914460186362098,0.22878555258182587,-0.04446479710838257,-0.04871589472001583,0.08292384303995094,-0.3056814612933358,0.8157648762038079,0.1415608974561849,0.4246378716776705,-0.2697925143314415,-0.0344351761641111,0.14077520784634168,-0.432211580856805,-0.04332161123493211,-0.41849012150521453,-0.25218931879499906,0.22486893789080142,-0.017093216343477224,-0.03425088449662896,0.1799282803856361,-0.44244851394644164,0.8529955327820125,0.21995660133819486,0.785736687505397,-0.10107743658074818,-0.042130129295560356,0.39877822220217973,-0.37836436941111046,-0.04496100634103245,-0.7245147163232133,-0.3117662052617216,0.2290875155185465,-0.03517975867193169,-0.036817177191949005,-0.11900523441191586,-0.18403832396035802,0.4200629376588681,0.17922509210166748,0.5646730048115061,-0.026609852400800223,-0.037619081268873034,0.35528899621429355,-0.13605607579556822,-0.029106316478038227,-0.0836450866138202,-0.4113687106162516,0.07046643555718358,0.005352422798684427,0.004447196151456443,0.017750628287748895,-0.06439513037525585,0.07159278411621481,0.008378168512697282,0.11741928461953495,-0.023633118330463724,0.03451117774585744,0.09154779362607501,0.05431147188245876,0.001196446382467859,-0.009885594473222872,-0.027168974711431867,-0.03512553758071163,-0.02641711449712452,-0.032688904576226675,0.023198057780863045,-0.003994704065852784,0.04487098179593943,0.027274645391050015,0.07185378310586037,0.014597423903868784,-0.02945525781388794,-0.017380662997495026,0.05547708619583589,0.029545197333601447,-0.024660820006657945,0.006829480435645281,0.002615667684602728,0.01960709254234845,0.006186481177425145,0.03304500074213041,0.01756959314118974,-0.029168673304457392,0.023749811365417543,9.644752302853416E-4,3.7161073281161117E-4,-0.019133791511153225,0.027701672467016845,-0.005354153016147971,0.028190621289395798,-0.0356196338357873,0.013316025465155328,-0.00976138449018931,-0.005655855688303518,0.020539632853874546,0.037202260625886004,-0.00956449020205751,0.020174950222519087,0.010883236810843128,-0.035806389787662964,0.015819571934889632,0.02791575995542537,-0.009037938324826241,-0.008417321161140804,0.02758966211915231,0.0015449731860085834,0.030788986034244056,0.0356511698830145,6.469573727986414E-4,-0.02542081980070916,-0.10416407791091434,0.03172205629037634,0.036888477889357396,-0.013972116975184983,-0.02582168396007004,0.11497591184695015,0.02530283741009183,0.08104679945949267,0.0032835101806966698,0.019792315068927528,-0.027408901701882888,1.852340481500183E-5,0.0011319379406368464,0.028546640401151256,0.026982095227959576,-0.060120597826474304,0.14199812408345083,0.19690275750331815,-0.01692395401085144,-0.3471723834362092,0.21636660807818528,0.012568695586587943,0.03279507081230653,0.26226333162273135,0.01776016527726074,0.15277301653362474,0.17749731971637653,0.11669546256112417,0.013359012672968093,-0.03526878722064799,-0.3128862961467541,0.29262939736361976,0.23132081346197447,-0.09271705882937373,-0.4268279249447975,0.5255897464617835,-0.01754251027808955,0.1221008284591589,0.013551517451126274,-0.018674404292884098,0.02657304382566219,0.2697644577525877,-0.036161508578084624,0.038446980274669536,-0.03983372999692114,-0.002470329246557577,-0.07814676310051134,0.23116379164062797,-0.1782601835173375,-0.2836602388407259,0.19510848231637756,9.225282398648874E-4,-0.008500165040441498,0.2065894566989655,-0.0370571526645277,0.034598967949108377,-0.03682332622175196,-0.12186461572972657,-0.018507078702105988,-0.04776644230919007,0.16645117400732778,0.007919026570237091,0.4119090088298102,-0.25933212510506526,0.0998265717827771,0.19410965655101195,-0.025450163540242928,-0.029958015988210088,0.20764395926968898,-0.04791225788675445,-0.19914309853948817,-0.13024555132285723,-0.2445403307202376,0.012397986104234277,-0.007121278602408588,0.04928760069815104,0.015703875967037612,0.2632319803884012,-0.19273770636467707,-0.2232066162917213,0.20967173742297385,-0.04834881165661783,-0.15108910934299777,0.45684391149897197,-0.04992214678449256,-0.2568522327576675,0.21936418475146768,-0.4421969126206029,-0.030992098468760512,-0.015652142884621214,0.06588021337199776,0.10759602398729608,0.26832113945657504,-0.1459950013454057,-0.04594630279787756,0.10884731070612719,-0.04162150404160133,-0.34539288209639807,-0.020365050442518618,-0.024981773116816097,-0.196389384548824,-0.13931957069224837,-0.7157208634606498,-0.00943832744621812,-0.07299475785580903,0.060989026566318445,0.2954255292227363,0.2826343931271187,-0.12355387604104623,0.027436327151911306,0.1651535128194091,-0.09836704974786258,-0.10822721354166076,0.46572563502578945,-0.08231700448514662,-0.1436621683902682,-0.16709351177852869,0.0057610009500801765,-0.027208826706768836,-0.06784729934330909,0.2540054546529509,-0.08720657299151512,-0.2766037006853056,-0.04165167598871191,0.20841241531159618,-0.26847802912156477,-0.12650771722755674,-0.04024317358220569,0.2645042130338029,-0.08943485722765131,-0.33619967113151283,-0.009620636089630373,-0.109862827313983,-0.05522210905771164,-0.10175290064587304,0.23211781465316647,0.10613707780091995,0.11954172135738811,-0.11881739247322343,0.15180717262012858,0.11923240152825133,-0.10440674920829218,-0.05200359066990496,0.036213420717716924,-0.10701580986547742,-0.5664917545480779,-0.5536344056761834,-0.6711995279318094,-0.07538629808356036,-0.11088827973390422,0.12655494483928906,0.24104544048048757,-0.0016421384903272667,-0.05818003484681067,0.11456085039000313,-0.036116447133913376,-0.10453175814193363,0.2892764052828548,0.21680413419531153,-0.10524205617154617,-0.26705658683246386,-0.15543532777451005,-0.32994789179700657,-0.10405380576861016,-0.1125178999309948,-0.029043151199286316,-0.18899719786387598,-0.20255992977085915,0.32690603312634753,-0.010933759132733279,-0.411278941952429,-0.15818752831049748,0.19450339633637412,0.4056385361979868,-0.11399972687694225,-0.2558004640572576,0.11008691386336483,-0.9646137946879012,-0.0682248425512184,-0.0981774707320164,-0.08210205326339244,0.40279088778222255,0.03706206568971908,0.5143505670935447,-0.5445962748732364,0.4081160135015309,-0.0985757272098812,0.3201844104784199,-0.011704639550664182,-0.09641935255719958,-0.04239723971125267,0.1352841318596236,-0.537295891869536,-0.08233765165116354,-0.08504759536479987,0.018074634216974854,0.18219490466059415,0.2164541444172776,0.16766354935023164,-1.3580051714792631,0.3181380469230903,-0.12856195998455733,0.5508112452132372,0.36269404504591546,-0.05950386918697136,0.6343848066285166,0.17820089399198924,0.06526401114979213,-0.13254116983549216,-0.12316194261432557,-7.431714085439477E-4,0.3504542058089193,0.3968964974717443,0.5497788492361382,-0.6058515107602138,0.25778933302208057,-0.11902357509809874,0.019303153911306752,0.5871051117232223,-0.1216541899307832,-0.26388295440784454,0.06461229122125393,-0.012694871344241467,-0.12870396376363016,-0.10704853777487244,0.2826153525287831,0.36142308265167183,0.4440721334793305,0.24700297646448002,-0.6066688869417723,0.20761111892929043,-0.11167637208101726,-0.03169923582336768,0.7434256622113752,-0.11442233732607748,-0.44796529786810385,-0.163768521010409,-0.1196849189616073,-0.08728968002077492,-0.07353443051447223,-0.10485835422212712,-0.025480047259346085,0.11146653844126654,0.3678679302976639,-0.8217482629724653,0.24467743989048646,-0.1702742370162185,0.21496422911814056,0.11394058870933141,-0.09383278670306347,-0.04226203058241051,-0.02017112394404395,0.1616704616191046,-0.056218823556269525,-0.08923077385073812,0.43245380452424936,0.00683405536642741,-0.10122613094731911,-0.19223280995820907,-0.13457865188884408,0.053767649824870103,-0.10733337172045203,0.06171175806729818,0.07243896011266711,-0.08238622317722079,-0.43568703773496087,-0.1441017695570079,-0.3043833441345627,-0.10198979912208543,-0.05132389658165125,-0.12178328164511414,0.11896446373689928,0.31161055825649314,-0.014355755592938144,-0.2955217105059525,0.017312167633869568,-0.0950672011146414,0.39279614028203114,0.2917232582289375,-0.04543454384408813,-0.33088800628986886,-0.07674426001950596,0.454743757874157,-0.04743306656535311,-0.013191997005230084,-0.03267849715536325,-0.07808913848417173,0.1378741434563917,0.23303895296534838,0.14621071738950983,0.24789701600609743,-0.032706821516874006,0.03332986035627429,0.3489835182097588,-0.06876060452130965,-0.12768931458032956,-0.4362907722116964,0.25662397142328913,-0.060198170918653295,0.008885640648133549,-0.11681436135759704,-0.05879750841100426,0.26667813041634875,0.22965435395667472,-0.24330693622984997,0.3076642725706617,-0.05445227812127647,-0.11367412086907655,0.3445255378718383,-0.01868642080380515,-0.29137560002932805,0.08501587220446612,-0.11024461260399793,-0.024670539002922046,-0.003803500104041886,0.06348922398147398,-0.29191830302672517,0.7649130866116548,0.27626227086437116,0.07248770887133377,-0.15951810165502128,-0.05021893454587585,-0.1432493205605859,-0.12017168021053336,-0.007095762151949194,-0.5167476559245167,-0.09144393034281366,0.03369154881836909,-0.04279154633149306,0.01581636578003549,-0.12601733643570856,-0.26530805767948623,0.8684987596985032,0.4528775139212517,0.7370362641835417,-0.01980682830124011,0.002069126599854323,0.23437970176450593,-0.5734291785606481,0.006194552364788081,-0.583769873522356,-0.48722749476075866,0.04630098033739116,0.0020224237734318157,0.015766324204923934,-0.18242579339909828,-0.1568107680669193,0.3895757545679836,0.21491210253632598,0.6990018352132781,-0.04220774645053898,0.00860202609594584,0.32647271754869306,-0.365422012159542,0.010165934551736405,-0.16596262739712303,-0.45745616712287646,0.02572668408609066,-0.03300596531738957,0.02440385644044488,0.01608958790330671,-0.04683367091331881,0.11933060962570133,0.006164953687514573,0.18115854477867546,0.015825475352976084,-0.00558727604046773,0.03783267542218847,0.019085971007175503,-0.026415970358226175,-0.016405268574133793,-0.0729166973894455,-0.01563373093834682,-0.01264714915597611,0.019933149759642596,0.025840741305769896,0.03198903728549716,0.029316036870204964,0.011969211148504261,0.03777272346588144,-0.006161795106240194,-0.02688390225682272,-0.01037032254585625,-0.02320731632674902,-0.01630391773734862,-0.02329782010970438,-0.02785452376255461,0.018881853011541563,0.024449615054195684,0.023515047778245764,0.023437728202818038,-0.015107591139883709,-0.016610784895894435,-0.012419089184815536,0.0031873275602626247,0.027281020307865014,0.016065384601872283,0.019936271959440553,0.03549231787474598,-0.016405748974694198,0.012586071730492338,-0.014782176874334516,0.0014141633888632508,-0.010410303332015041,-0.02806228488546913,-0.011207764165151351,0.0073449906342712545,-0.028396243919337864,0.02409821565760414,-0.017071997251470118,0.03150316060550738,0.018309344626688095,-0.004799927134692453,-0.001854420105844529,-0.021946815246103528,-0.021937719262215202,-0.014880859068097529,0.026641490385598838,0.014844227797095717,-0.013985915473257783,-0.09111232280471147,0.044583959378827476,0.14473548282685092,-0.02168295119116474,-0.09977468666008295,0.24521934611386706,-0.03085842822430775,0.046141408320850674,-0.04999796791070781,0.017183955563702034,1.1019319365934945E-5,0.01572921397526861,-0.0023991969453713386,-0.028338429814126508,0.02496371958776935,0.057579412930692304,0.08990688337688713,0.3707191003509829,0.00386320367395114,-0.18923975201360405,0.23218613950107525,-0.021909180494747136,0.12095302167771678,-0.026316927494895913,-0.028577298220047887,-0.03739797755219236,0.1243420298231778,-0.14040585367786654,-0.007632234630075118,0.02458152330153873,0.03865715832487103,0.2823910724474847,0.340433398098987,-0.07765433659625445,-0.12556359232383038,0.2361912742289447,0.03015820970345452,-0.0899510862435363,0.0655543133597734,-0.03603467390750214,0.004018900583611099,0.15443090626291864,-0.5240703771785404,0.014029694953939853,-0.02169160188838947,0.18728942752334157,0.08371052615663,0.20029624581351216,-0.09834053485237049,-0.05127784941588025,0.24649232755893116,-0.02945860998181212,-0.14220169907158436,-0.13390728278373643,-0.023534149460802668,-0.3197966377031358,0.04734975536688902,-0.4299347584188783,0.014085516809918484,-0.02850246857804066,0.050998003490675584,0.21643568346997114,0.24423110278207522,-0.10236492081099166,0.26122618850258406,-0.04891296053831141,-0.054864824209006596,0.0013663039631458586,0.1348275235669694,0.01602120446749089,-0.524997289171492,0.07367230491773295,-0.3161835582168539,-0.0042535104144966465,-0.001468322490085667,0.031245186054412684,0.06976447536363195,-0.017209565051624395,-0.2337847755158601,0.2502918377649052,0.11806704993699198,-0.012752049794347058,0.04825340319074533,-0.2738727726786727,-0.01084688715003727,0.19503768485393028,0.3482298507803718,-0.3920446423748526,0.018780713362828938,-0.0634319101184649,0.11986495160234499,0.2710899255978661,-0.08202798068348995,-0.14658115605752436,0.37223224717721665,-0.03577781736441206,-0.06370087030290394,-0.3465767317868898,-0.29706868819177906,-0.051757889275901144,-0.2410277471229389,0.030021419954867012,-0.4839899037033844,-0.006339995653616282,-0.061242945449666256,0.10020217826996833,-0.0945453974920918,0.20423026826713972,-0.10849534063411265,0.537143119871443,-0.22010182316950025,-0.07752682202057652,0.03586720342184697,-0.35857033471710775,-0.058251012379520295,-0.2469287051862427,-0.08639854895380576,-0.24406699702017387,-0.0395227097159232,-0.07836942406971444,0.28340827177624267,0.20760559120688815,0.10968170139663393,-0.22321093447366483,0.7392686534532008,0.17281486133867816,-0.1133175404927892,-0.11690542588896687,-0.2710466904387823,-0.11621113477267683,-0.834450916791753,-0.15002553919024295,-0.46320725832301773,-0.09426338593330669,-0.10248686159679735,0.1821614768243377,0.33714283379576,0.08959247727317783,0.04365506840530716,0.39686946490044717,0.07946750696525384,-0.09765789074356171,0.24997566354712575,-0.5479700147185927,-0.12077661084251415,-0.32540393425256814,-0.20869653183034348,-0.38157390913104827,-0.0800258971786032,-0.09683702479249137,0.1997938458937444,-0.010889395001036509,0.058510640667128556,0.2649531754413295,0.4519234419037068,0.21434096322924936,-0.14394930395120825,0.11002454609342664,-0.20754179759911792,-0.09042271375747923,0.0939351484642799,0.1609768579751613,-0.6654358353879885,-0.10172207784700864,-0.077792656974857,0.016994134526664054,0.4736305508902133,0.38735395926069444,0.4047205156252811,0.8980232303712526,0.7640507925802572,-0.13135431899711314,0.08384601409874978,-0.4560325130349537,-0.10488505241589434,-0.4887600242759337,-0.05832148410047633,-1.1819004511536575,-0.11360905128459181,-0.08193823269096252,0.0923369502991259,0.10975750528010471,0.09971728134361574,0.6414077214156191,0.27762815885873077,0.5739572177305626,-0.13425531021987,-0.08477088131351944,-0.08733038097112734,-0.09033613463305276,-0.030086831047283213,0.07350184057982319,0.1955234323964245,-0.06933125053121582,-0.06142993535944928,-0.07055448168850338,-0.011039765302050553,0.170279757773268,0.5511397710291286,-0.6374182157649877,0.487205856406004,-0.09741039903591489,-0.03169024915110137,0.17330200905341678,-0.06712672781879352,0.3383281012358811,0.31420725751608103,0.394178251810799,-0.10770337594501647,-0.09835462570215686,-0.16019716084148583,0.3285628607409417,0.25417784513974306,0.5263142580138388,-0.5450696016050647,0.7141273393172535,-0.1365111328145472,0.017116554689918174,0.19613327481778317,-0.06710762235539407,0.058595342556472356,0.3974003516697844,0.5216965468072537,-0.12159713342456571,-0.11214431992723206,0.3906287453416111,-0.07407886504206364,0.39378977617557864,0.24375500815464463,-0.9631764253495604,0.6035389494960867,-0.15035892231802078,0.047783774942880886,-0.08413086866034175,-0.13015320054267793,-0.03277507653077701,0.19471088314243126,0.35138027843516895,-0.10478425972581538,-0.09198671804766517,0.00944830698028344,0.035540815131308204,0.18913950128438933,0.13918667104481033,-0.24672985363424632,0.12593340563653735,-0.1505262220839217,0.14877250711818402,-0.057835557927583124,-0.06718312483693951,-0.2530881680055676,0.34436845976007874,0.00610879585606786,-0.0534436031001048,-0.09342222357549591,0.23684187391526046,0.2889077798429123,0.21568038716210433,-0.08365620977886574,-0.31617381260209254,0.3599787112975089,-0.13342528246112767,-0.02423114970237204,0.5562010276802482,-0.12326488810465551,-0.32865910757975897,0.41064788107008454,-0.2870296214337638,-0.050090808517213654,-0.09482335349578803,0.4191016570340412,0.02250013174254693,0.47222848778866117,0.008327191271782716,-0.5674224649310811,0.30689912275231507,-0.08823659157328516,-0.06648607894161325,-0.05301037018425911,-0.06617346843025722,-0.11785603831717045,0.04702862939800129,0.17283107684852242,0.008640173354000242,-0.03087446118974325,0.020801763833875785,0.1996654493589003,0.4199113614671025,0.20155417331299602,0.21289979981278465,0.3793388111930724,-0.07018516783809434,-0.24035518175665307,0.2879006082788505,-0.033279566956463856,-0.45587268365791955,0.08152363153297057,0.045224316817283366,-0.025367743563375036,-0.012363314090611682,-0.05610771635452378,0.16926858619944732,0.5405938734897148,0.2542324513013305,0.2562570294368802,0.1857410889602681,-0.035485326794365245,-0.16092785788315622,-6.424261588597535E-4,-0.05059123384562735,-0.5028976063614885,0.0731923098527442,-0.13378691272530382,-0.02073216736448686,-0.012830685116174951,-0.06612501401930902,-0.0029232578563465833,0.6856831627545383,0.27236295500270574,-0.027974378472667018,0.04651370044859166,-0.04906402082169297,-0.24363652076868672,-0.1578418451898385,-0.00430513677171954,-0.26265661355208364,0.12761971667952815,0.020585418865655403,-0.04014961255293689,0.02506694500237509,-0.1901857692100491,-0.07582489875945607,0.47350591005380654,0.3749563260269756,0.09259801891026885,0.022069366084599227,-0.02339692502933569,-0.12769387527209206,-0.08033486634619588,0.021378536774336755,-0.27460112357308564,-0.18310063317515007,0.049429228201330874,0.012827825144818679,-0.005203033464093636,-0.3089930966843162,-0.17046965897707256,0.2841365592260743,0.36507466835250424,0.5093157646686145,-0.009469457853732212,0.008898567785382271,0.11044632388973953,-0.28783966176498604,0.006684483741092934,-0.16181297887107765,-0.313279232573406,-0.02251534158904485,0.0087841685505851,-0.006733664377826534,0.011876095925462874,-0.04878575450985877,0.04312426745245091,0.013544199640835336,0.23751871859614188,0.043611657471231795,-0.0312783377645204,0.04055436469769892,-0.0035803748017565066,0.011114133288732541,-0.044943897682142096,-0.09836812531286061,4.8403300479938553E-4,-0.03401186986447667,0.011951136875403657,-0.03309319857969574,-0.009859773506699273,0.025801551303271823,-5.258706642748629E-4,9.654265529247004E-4,-0.015170079816893542,0.02576317300091041,0.027059270180338754,0.02576464545827836,0.019215331239341726,-0.023950224848949826,-0.004371068125369568,-0.028123830328830358,-0.008006646235349583,0.0033209707920093534,-0.03493872180723613,0.03414158961840244,0.03237020387528107,-0.03131637799880158,1.5792311500491263E-4,0.03309702538962535,-0.01554910655161073,0.010008923974236972,-0.019033061374620304,-0.030840488657024993,0.010440721879540232,-0.033097485658178626,0.007621265678238216,-0.015331221558121317,-0.03006115942726701,0.017879736784065306,-0.00903850888820892,-0.017714721880577156,-0.016287628293191386,-0.029664600574719296,-0.014613847252446093,0.032020985259718755,-0.012721679847136349,-0.01422828833041564,-0.02216109552495915,-0.01748887840997161,-0.02969452982732434,0.008714181918592384,-0.014984394374437946,-0.019114800078501883,-0.05268747027964263,-0.008876176271277299,0.17004122551684614,0.015069322103191068,-0.06740026776479074,0.09009132832041301,0.009400797206444477,0.036429215387421575,-0.04728275462544955,0.015161325206262745,-0.031312380330736966,0.005152770182372419,0.0074059291697434046,0.0037932277312409174,0.020052824788725835,0.07397369552792178,-0.037239310812567324,0.32406426331816796,-0.022771218260499576,-0.09744659291195161,0.19004955848250824,-0.02299574564399775,0.05545122291939656,-0.07314645743119559,0.010447661195447046,-0.030490929640842067,0.06676704841206957,-0.25959928569394275,0.008871573461957095,-0.027301166299947447,0.2900800288939297,0.0922620818393016,0.251985678258622,-0.08549759828023948,0.029820086455708467,0.24063967947821793,0.027214152163057923,-0.1873688311663696,0.07655043652352532,-0.027885297447175356,-0.04467539554874236,-0.00954336250794293,-0.37328046913565743,2.4249048638384614E-4,-0.03646588066758181,0.32053182287163146,0.231775124131151,-0.10136468814796752,-0.06044692247994976,0.34834003929172236,0.24175387031160628,0.0050540692993446676,-0.17629833428544173,-0.07674134319163312,-0.01120385853966172,-0.4996022942510549,0.005610187039285854,-0.6150853733030255,0.0557104842422598,-0.00653913814140145,0.05251279288799924,0.26263379951449783,-0.15068308380239984,-0.08123829143091406,0.6721823315940288,-0.2877448685713916,-0.017106333812831526,0.08655692492002147,-0.21226933564150952,-0.03214759572781783,-0.5928413025139212,0.1707603085552654,-0.3797585159899562,0.04610136669374013,0.0025778628995797117,-0.04858813452459549,0.25249608978105936,-0.18738315557775992,-0.12379843592446448,0.6965841571044186,0.09427488860633583,-0.04260832072381078,-0.08845741054400096,-0.18663871195715676,-0.012307570990237863,-0.5153616653806901,0.00803882621698035,-0.00981776299217412,0.008877396088433777,-0.015544627617722363,0.4311349091492245,0.051420412706881705,0.009730745459076174,-0.14918713038684184,0.4526205172573176,0.1749209063048782,-0.0664301854149712,-0.13511334891992827,-0.8001318176166388,-0.06442629492898107,-0.5854189691546658,0.06321782587296286,-0.5669232034013547,-0.054661049304107256,-0.03688205444831313,-0.20377923272947382,0.4275086117543171,0.10035377807960756,0.060645596487051805,0.5269507556264664,-0.15619295050174312,-0.06667320719796228,0.0727675173621582,-0.36312365369172783,-0.057079274012127826,-0.807909855555676,0.14290306807267336,-0.057155009030299415,-0.09466961605524078,-0.08047924272563589,0.20441641294626306,0.189912741197087,0.21724732901919047,-0.2591297347561662,0.697641861110715,-0.06346339690092367,-0.1071637051967887,-0.09412145452028944,-0.2619721208475524,-0.10681466069647788,-0.5595667552426509,0.3839612205762698,-0.07309262949843737,-0.06226531488296488,-0.11405636885018175,0.0053273051898614565,0.02942660401303642,0.22964277838359648,-0.010963041419728469,0.4760101482561967,-0.1661674864189898,-0.11477050384531881,0.15874058635752764,-0.379257815116289,-0.056376467811455444,-0.45263913617252605,-0.1198410401236099,0.09785779894423423,-0.07095111917956293,-0.05362154225873771,0.03146400079536254,0.008719911221806178,0.04613997910053654,